tree
version=v3
num_class=1
num_tree_per_iteration=1
label_index=0
max_feature_idx=196
objective=binary sigmoid:1
feature_names=sttl dttl swin trans_depth res_bdy_len stime sintpkt dintpkt tcprtt synack ackdat is_sm_ips_ports ct_state_ttl ct_flw_http_mthd is_ftp_login ct_ftp_cmd ct_srv_src ct_dst_ltm ct_src_ltm ct_dst_sport_ltm dur_log1p sbytes_log1p dbytes_log1p sload_log1p dload_log1p spkts_log1p stcpb_log1p dtcpb_log1p smeansz_log1p dmeansz_log1p sjit_log1p djit_log1p network_bytes_log1p proto_3pc proto_a/n proto_aes-sp3-d proto_any proto_argus proto_aris proto_arp proto_ax.25 proto_bbn-rcc proto_bna proto_br-sat-mon proto_cbt proto_cftp proto_chaos proto_compaq-peer proto_cphb proto_cpnx proto_crtp proto_crudp proto_dcn proto_ddp proto_ddx proto_dgp proto_egp proto_eigrp proto_emcon proto_encap proto_esp proto_etherip proto_fc proto_fire proto_ggp proto_gmtp proto_gre proto_hmp proto_i-nlsp proto_iatp proto_ib proto_icmp proto_idpr proto_idpr-cmtp proto_idrp proto_ifmp proto_igmp proto_igp proto_il proto_ip proto_ipcomp proto_ipcv proto_ipip proto_iplt proto_ipnip proto_ippc proto_ipv6 proto_ipv6-frag proto_ipv6-no proto_ipv6-opts proto_ipv6-route proto_ipx-n-ip proto_irtp proto_isis proto_iso-ip proto_iso-tp4 proto_kryptolan proto_l2tp proto_larp proto_leaf-1 proto_leaf-2 proto_merit-inp proto_mfe-nsp proto_mhrp proto_micp proto_mobile proto_mtp proto_mux proto_narp proto_netblt proto_nsfnet-igp proto_nvp proto_ospf proto_pgm proto_pim proto_pipe proto_pnni proto_pri-enc proto_prm proto_ptp proto_pup proto_pvp proto_qnx proto_rdp proto_rsvp proto_rtp proto_rvd proto_sat-expak proto_sat-mon proto_sccopmce proto_scps proto_sctp proto_sdrp proto_secure-vmtp proto_sep proto_skip proto_sm proto_smp proto_snp proto_sprite-rpc proto_sps proto_srp proto_st2 proto_stp proto_sun-nd proto_swipe proto_tcf proto_tcp proto_tlsp proto_tp++ proto_trunk-1 proto_trunk-2 proto_ttp proto_udp proto_udt proto_unas proto_uti proto_vines proto_visa proto_vmtp proto_vrrp proto_wb-expak proto_wb-mon proto_wsn proto_xnet proto_xns-idp proto_xtp proto_zero service_Non service_dhcp service_dns service_ftp service_ftp-data service_http service_irc service_pop3 service_radius service_smtp service_snmp service_ssh service_ssl state_ACC state_CLO state_CON state_ECO state_ECR state_FIN state_INT state_MAS state_PAR state_REQ state_RST state_TST state_TXD state_URH state_URN state_no
feature_infos=[-0.84123726486313966:2.5807842859693531] [-0.71885185623453007:5.21906299289655] [-1.1964434454127388:0.83581932975193185] [-0.19850508387965529:310.43227169625561] [-0.089490617519469906:137.67214695243908] [-1.1743198654484994:0.88341622551758314] [-0.0695006104872785:21.497550148504036] [-0.055218057683116099:36.73059042178491] [-0.13487535646000609:113.8030960953636] [-0.12797465854596959:104.12353616839336] [-0.1217286682245141:106.8646576427892] [-0.040465918353591:24.712153849123176] [-0.38160314717237531:8.3998140016160647] [-0.198430140987406:64.574259498525691] [-0.13170669964386311:7.5926281859921643] [-0.1106403785938106:43.110435673937111] [-0.75796068935924754:5.3445345369240567] [-0.66732802899569688:7.4413438679161708] [-0.72021682070949711:7.3469619730348681] [-0.41959747598339542:9.1538206546513141] [-0.44773841793484359:7.991035257420382] [-4.2119112531671012:5.4062344108278513] [-1.7051587058526052:2.5463742901265798] [-4.3376524668850633:2.7949573466327835] [-1.8823813338562363:1.1332566381936398] [-1.8892588798848928:4.4425070125094761] [-1.1904165763768808:0.93115421040280477] [-1.1901408612118078:0.931273093520952] [-7.2885979582000839:4.4605587290197679] [-1.852845644393468:1.3060238646187028] [-0.99592731494786058:3.3321308455938592] [-0.90024149927653618:3.836129300458996] [-2.0725035481499638:3.5394980989591684] [0:1] [0:1] [0:1] [0:1] [0:1] [0:1] [0:1] [0:1] [0:1] [0:1] [0:1] [0:1] [0:1] [0:1] [0:1] [0:1] [0:1] [0:1] [0:1] [0:1] [0:1] [0:1] [0:1] [0:1] [0:1] [0:1] [0:1] none [0:1] [0:1] [0:1] [0:1] [0:1] [0:1] [0:1] [0:1] [0:1] [0:1] [0:1] [0:1] [0:1] [0:1] [0:1] [0:1] [0:1] [0:1] [0:1] [0:1] [0:1] [0:1] [0:1] [0:1] [0:1] [0:1] [0:1] [0:1] [0:1] [0:1] [0:1] [0:1] [0:1] [0:1] [0:1] [0:1] [0:1] [0:1] [0:1] [0:1] [0:1] none [0:1] [0:1] [0:1] [0:1] [0:1] [0:1] [0:1] [0:1] [0:1] [0:1] [0:1] [0:1] [0:1] [0:1] [0:1] [0:1] [0:1] [0:1] [0:1] [0:1] [0:1] [0:1] none [0:1] [0:1] [0:1] [0:1] [0:1] [0:1] [0:1] [0:1] [0:1] [0:1] [0:1] [0:1] [0:1] [0:1] [0:1] [0:1] [0:1] [0:1] [0:1] [0:1] [0:1] [0:1] none [0:1] [0:1] [0:1] [0:1] [0:1] none [0:1] [0:1] [0:1] [0:1] [0:1] [0:1] [0:1] [0:1] [0:1] [0:1] [0:1] [0:1] [0:1] [0:1] [0:1] [0:1] [0:1] [0:1] [0:1] none [0:1] none [0:1] [0:1] [0:1] [0:1] [0:1] [0:1] [0:1] [0:1] none [0:1] [0:1] none none [0:1] [0:1] none none [0:1] none none
tree_sizes=8190 8239 8256 8276 8254 8325 8330 8296 8332 8338 8350 8343 8364 8365 8382 8397 8407 8390 8403 8368 8377 8403 8410 8414 8378 8431 8423 8414 8440 8407 8398 8432 8392 8432 8365 8431 8455 8414 8449 8390 8377 8428 8443 8428 8527 8473 8444 8498 8497 8398 8483 8491 8487 8416 8471 8396 8448 8568 8517 8407 8452 8524 8409 8491 8469 8390 8546 8558 8496 8519 8456 8472 8495 8477 8474 8479 8441 8456 8535 7829 8513 8504 8464 8529 8508 8543 8437 8508 8511 8556 8540 8475 8441 8456 8542 8447 8551 8532 8506 8438

Tree=0
num_leaves=77
num_cat=0
split_feature=0 12 183 12 2 7 22 10 12 28 16 21 32 28 16 22 29 29 21 173 28 16 173 5 32 21 16 28 28 5 13 16 7 16 21 28 0 10 19 10 20 18 153 20 3 21 32 16 28 20 31 8 30 13 21 5 30 18 26 16 18 20 22 20 4 22 27 16 5 9 28 29 22 26 16 22
split_gain=1.53172e+06 4551.84 3448.21 3359.19 4756.38 1649.25 1407.91 1374.33 1256.32 2198.92 1054.5 613.181 494.217 314.17 364.494 194.761 433.636 207.922 260.05 270.359 195.48 135.361 129.397 136.136 118.607 152.926 105.755 89.7311 80.8911 78.8162 73.9788 88.9736 58.4588 122.448 56.7362 63.102 53.9709 148.66 53.119 49.1787 46.9568 45.4591 43.419 43.3624 35.408 41.1594 37.4312 35.2581 39.7071 34.9525 34.073 29.4234 28.6591 28.5164 27.6106 28.7188 27.5691 26.033 25.7939 25.587 24.434 24.155 22.4865 31.0539 23.4628 21.9938 21.9509 21.9277 21.7619 21.5642 21.3381 20.8988 31.8061 20.0691 22.4229 19.4256
threshold=-0.022636031134582447 1.0000000180025095e-35 1.0000000180025095e-35 3.2773206648228084 -1.1924586164418274 -0.014155642419408898 -0.51997498610718229 2.5505884741897575 1.813751140024735 -0.69809422442460967 -0.71172966491770728 -1.3274064341284066 -0.54457957549144831 1.577954877993909 0.30535287279617662 0.22243406981635641 0.15994318509886057 -0.03574408015504394 -0.34931467132570987 1.0000000180025095e-35 -0.087049300167870686 -0.34188146938538583 1.0000000180025095e-35 1.0000000180025095e-35 -0.45945041754046795 1.0000000180025095e-35 -0.61926761603462699 -0.25933654353710883 -1.086742722081061 1.0000000180025095e-35 6.0989146850763678 -0.61926761603462699 -0.024386566600160746 -0.52680556715154658 -0.39148733984721773 -0.8658855044914201 2.553944901256942 1.0000000180025095e-35 -0.17620548961132643 2.5505884741897575 1.8091315104267935 -0.29241188467759888 1.0000000180025095e-35 -0.447727127603193 1.0000000180025095e-35 0.53844049115078085 0.0011461640163876502 -0.52680556715154658 -0.36369046065178495 0.79151477201323817 1.0376981711838689 2.8078773568111779 1.7187836665809895 26.790190542143055 -0.032226275330978195 1.0000000180025095e-35 1.5761320897129723 -0.65910182984779719 0.8032990094980933 -0.52680556715154658 -0.65910182984779719 0.79151477201323817 0.22211763093679102 0.99794035657541191 -0.087190408537736533 -0.17645155299113777 0.91679394855799712 -0.52680556715154658 0.87313894565578165 2.5436874288227123 -0.69809422442460967 -0.03574408015504394 -0.032958052163183489 0.86013908826658281 -0.43434351826846623 -0.007648349626465099
decision_type=2 2 2 2 2 2 2 2 2 2 2 2 2 2 2 2 2 2 2 2 2 2 2 2 2 2 2 2 2 2 2 2 2 2 2 2 2 2 2 2 2 2 2 2 2 2 2 2 2 2 2 2 2 2 2 2 2 2 2 2 2 2 2 2 2 2 2 2 2 2 2 2 2 2 2 2
left_child=8 2 36 5 -5 11 -6 -4 -1 -10 62 21 22 32 26 16 17 18 -14 29 27 42 23 -12 25 -16 -15 -18 41 69 31 58 -13 -34 -25 38 -2 -38 50 -33 44 -23 -3 -27 45 47 49 48 -31 -47 51 68 59 56 55 -35 -32 -48 -29 -41 66 -9 63 -7 71 -42 73 -58 -36 -20 -37 72 -65 -49 -75 -71
right_child=1 3 7 4 6 10 -8 61 9 -11 12 13 15 14 24 -17 20 -19 19 -21 -22 28 -24 34 -26 43 -28 30 -30 40 53 39 33 54 35 70 37 -39 -40 52 65 -43 -44 -45 -46 46 57 60 -50 -51 -52 -53 -54 -55 -56 -57 67 -59 -60 -61 -62 -63 -64 64 -66 -67 -68 -69 -70 75 -72 -73 -74 74 -76 -77
leaf_value=-0.64876399112541039 -0.64876399112541039 0.63150448937313342 0.64358798247481341 0.64440909485069431 -0.64876399112541039 0.63556146875491915 0.57941597396337596 -0.59969038167103905 -0.64876399112541039 0.64876399112541039 0.486120792988954 0.64797759588039427 0.62680848839206893 0.63374742061774214 0.52126907606653683 0.64289751272625228 0.52118675655767277 0.61022019836659525 0.57911692040602702 0.62769541862473999 0.64048142176496137 0.13118481474891988 0.62762345576474454 0.41951360236223062 0.50466521761013372 0.25401639202557441 0.5275337707383384 0.055191326423700553 0.4394719493653742 0.41674989012044944 0.44774241846562257 -0.16139323609762321 0.63596980813314841 0.55506568545667867 0.30265696565321842 0.37673831825085696 0.15086219895864825 -0.58449411761273073 0.56130731418657653 0.17972057865112409 0.38376829633387471 0.41756126111816616 0.49771158349588235 -0.017618019881489592 0.57467972655512112 0.34498990427207138 0.33432284704856968 0.35489138508907359 0.53680916253218269 0.1476520144986562 0.28776741503944542 0.081109020096110776 0.30046419641292954 0.60749365129181987 0.58030790200915294 0.38086784194499512 0.30587642660758146 0.46218745070822514 0.34916939857408669 -0.10300106037408518 0.42140463005480477 -0.29091949467470279 0.64829153397338457 0.60178028186799437 0.47672673739740634 0.54875155649162521 0.46848870344926385 0.012008499084680681 0.037930974922095947 0.45587807554087995 0.16628746475839062 0.63576665013037481 0.49646650452913732 0.33238831887280595 0.061095606205444193 0.59054368234842602
leaf_weight=195359.5 387.25 338.29921650886536 689.37325882911682 968.32752752304077 613.25 4397.976051568985 116.93989562988281 91.459059238433838 377.25 216.19120240211487 462.70993089675903 163759.44927763939 1447.9028766155243 3002.6228265762329 124.66942524909973 1271.7656812667847 109.33318829536438 2507.948174238205 433.14851975440979 1016.1681199073792 156.65766572952271 189.89895486831665 168.78484344482422 273.08885049819946 272.38414669036865 99.431184768676758 1468.9878067970276 38.254355430603027 486.66899013519287 657.11324119567871 83.910714387893677 101.29965162277222 2560.7404217720032 145.40331029891968 141.52177715301514 411.40156841278076 36.483885049819946 139.66811847686768 40.799651622772217 65.008710861206055 106.49695134162903 84.181184768676758 1039.380227804184 163.55836248397827 135.735191822052 275.50261354446411 321.86367630958557 174.40331029891968 518.64111566543579 143.70601058006287 222.84625458717346 347.43684697151184 61.467770099639893 39.299651622772217 199.01872849464417 316.03179478645325 77.574477434158325 349.45862412452698 175.40331029891968 69.902003526687622 901.69773626327515 37.627177715301514 4119.510023355484 1311.7861516475677 173.46907687187195 421.64416432380676 86.369773626327515 40.754355430603027 42.483885049819946 507.88240480422974 57.820122003555298 1048.2177715301514 391.90592384338379 59.467770099639893 69.549651622772217 144.86236953735352
leaf_count=781438 1549 211 408 571 2453 2696 89 354 1509 125 466 95024 921 1855 114 755 100 1705 330 644 94 369 107 323 261 161 1319 82 550 782 93 275 1567 120 211 533 69 535 33 118 136 100 1015 382 105 380 453 236 453 273 341 721 92 27 151 406 115 374 240 179 1062 115 2387 921 179 355 91 92 93 552 107 642 384 84 148 106
internal_value=0 0.623285 0.0365548 0.627296 0.173034 0.631146 -0.452071 0.461695 -0.647332 -0.176073 0.555235 0.642552 0.497875 0.644697 0.56564 0.522549 0.509002 0.529009 0.502802 0.474408 0.307147 0.469919 0.354877 0.33186 0.340621 0.225358 0.598855 0.246582 0.360092 0.44506 0.206704 0.136818 0.647126 0.603851 0.285432 0.256471 -0.58105 -0.43219 0.200799 0.0221824 0.425013 0.219143 0.530565 0.0850816 0.412076 0.405872 0.353393 0.429068 0.46971 0.277342 0.181299 0.136655 0.116878 0.354652 0.479317 0.43576 0.305519 0.400883 0.296534 0.0332325 0.392069 -0.509687 0.629119 0.618334 0.592434 0.515484 0.324208 0.204664 0.241536 0.523001 0.350805 0.599728 0.577555 0.283138 0.186142 0.485764
internal_weight=0 203513 1381.86 202131 1698.52 200433 730.19 818.459 195953 593.441 26182 174251 14739.1 172112 5131.65 12570.2 11298.4 10279.6 7771.61 6323.71 1018.87 2138.43 2168.89 2000.11 660.043 387.659 4471.61 862.208 760.749 5307.54 752.875 511.336 166981 3221.19 1537.4 1264.31 563.402 176.152 795.088 297.678 4221.65 274.08 1377.68 262.99 3693.51 3557.77 1090.53 2467.24 1175.75 419.209 754.289 531.443 196.378 241.539 660.454 461.435 202.24 671.322 213.658 134.911 1291.49 129.086 11442.9 7323.35 2925.38 528.141 389.791 118.329 184.006 1085.89 469.222 2751.91 1703.69 303.421 129.017 652.745
internal_count=914416 131344 3030 128314 3113 125201 2542 877 783072 1634 21596 103605 14387 101360 4092 11452 10697 9190 7485 6564 1507 2245 2935 2828 918 657 3174 1413 1019 5920 1313 986 97268 2244 2362 2039 2153 604 1399 664 4932 469 1226 543 4441 4336 1480 2856 1235 653 1366 1025 389 327 677 526 300 827 322 297 1621 469 7209 4822 2126 491 559 207 304 988 640 1947 1305 468 232 658
is_linear=0
shrinkage=0.324382


Tree=1
num_leaves=77
num_cat=0
split_feature=0 12 29 12 2 7 16 22 105 145 131 32 32 32 16 4 29 32 32 16 23 16 168 20 168 5 29 12 39 22 4 32 9 153 18 25 18 32 5 8 4 32 32 16 10 32 27 3 22 16 18 5 9 29 32 168 26 5 5 16 18 10 5 20 5 5 22 20 5 5 10 32 26 25 4 168
split_gain=798515 2375.98 1762.99 1740.42 2482.2 1162.99 828.342 746.087 678.598 650.25 491.802 456.597 433.359 206.361 135.156 133.478 170.753 159.83 124.168 292.871 87.1535 83.7039 82.598 77.7549 72.996 77.6692 66.9688 62.585 414.593 61.2481 56.2797 52.1359 49.3963 48.5679 47.9664 47.4182 47.281 45.0822 55.1704 41.9789 41.914 32.1724 90.3143 44.3249 28.9157 73.6872 28.572 27.6248 27.4192 25.8172 26.392 25.511 23.7826 26.5316 28.7926 22.7052 20.5229 19.9479 19.9423 23.973 19.19 18.9695 18.5419 18.3951 17.5549 17.1036 17.0135 24.0424 16.5493 22.7436 17.6672 16.3411 18.8096 16.1859 15.8789 15.605
threshold=-0.022636031134582447 1.0000000180025095e-35 -0.20005215875254898 3.2773206648228084 -1.1924586164418274 -0.024386566600160746 -0.61926761603462699 -0.35215735380070928 1.0000000180025095e-35 1.0000000180025095e-35 1.0000000180025095e-35 -0.45945041754046795 -1.4235475207258894 -0.54457957549144831 -0.71172966491770728 -0.087190408537736533 -0.03574408015504394 -0.15171352579985029 -1.1788571614070722 -0.34188146938538583 -1.6259751399864786 -0.61926761603462699 1.0000000180025095e-35 -0.084094089131551836 1.0000000180025095e-35 -1.1686283826898196 -0.12190458078812398 1.813751140024735 1.0000000180025095e-35 0.22243406981635641 -0.087190408537736533 -0.58066077933251548 2.5436874288227123 1.0000000180025095e-35 -0.65910182984779719 -0.031676782329303398 -0.53687184812439781 -0.14260491439670547 -1.1686283826898196 2.8078773568111779 -0.083608804598142586 -0.54457957549144831 -0.45945041754046795 0.49027697056233738 2.5505884741897575 -0.15171352579985029 0.89290114177652391 1.0000000180025095e-35 -0.032958052163183489 -0.34188146938538583 -0.65910182984779719 0.85024168966077773 2.5436874288227123 -0.0043566197042465993 -0.45945041754046795 1.0000000180025095e-35 0.81155201500426821 -1.172255243170186 0.85167392496590411 0.49027697056233738 -0.29241188467759888 2.5505884741897575 0.87997709803413493 -0.447727127603193 0.85167392496590411 1.0000000180025095e-35 0.22211763093679102 1.101389964543021 0.85024168966077773 -1.172255243170186 2.5505884741897575 -0.18479927529308218 0.88542312522329258 0.91937641350779031 -0.08515278048999099 1.0000000180025095e-35
decision_type=2 2 2 2 2 2 2 2 2 2 2 2 2 2 2 2 2 2 2 2 2 2 2 2 2 2 2 2 2 2 2 2 2 2 2 2 2 2 2 2 2 2 2 2 2 2 2 2 2 2 2 2 2 2 2 2 2 2 2 2 2 2 2 2 2 2 2 2 2 2 2 2 2 2 2 2
left_child=8 2 10 5 -5 12 14 -6 9 27 11 -2 21 24 66 16 20 36 -14 33 -15 -3 -22 41 -8 -26 32 -1 -29 30 31 61 -24 -20 44 37 71 38 -18 -27 46 -21 43 -43 45 -28 56 52 68 64 -51 -41 -33 54 -54 -56 -32 -52 -59 60 -60 -16 -57 -45 -23 -36 67 -7 69 70 -34 72 -17 -49 -73 -69
right_child=1 3 -4 4 7 6 13 -9 -10 -11 -12 -13 18 15 29 17 35 -19 19 23 22 49 26 -25 25 39 34 28 -30 -31 40 47 48 -35 65 -37 -38 -39 -40 51 -42 42 -44 63 -46 -47 -48 73 -50 50 57 -53 53 -55 55 62 -58 58 59 -61 -62 -63 -64 -65 -66 -67 -68 75 -70 -71 -72 74 -74 -75 -76 -77
leaf_value=-0.49393367989565495 -0.48195327260029969 0.43942354910933723 0.47648190487692804 0.48985082577783307 -0.48598268638963577 0.48147380584174299 0.48589383303426442 0.4893326288524637 0.49393365739520056 0.49393365739520056 0.49481353942328454 0.4172065709715555 0.49391833846703209 0.41753817912010716 0.34685013488848881 -0.12056470429676867 0.085496202102399138 0.45980562687813581 0.49156707519523907 0.36989926508218246 0.45792687769282819 0.43606111403542336 0.38445483234427957 0.4326583557271752 0.35499124485232392 0.26269790108812185 0.14341997410748428 0.49393365739520056 -0.49393367989565495 0.49225363802548311 0.054424506818012149 0.43816722506802841 0.054810714379770531 0.43454272243906278 0.39191884078944805 0.46574151508982559 0.24976228711832771 0.49244962950143911 0.45366826755893175 -0.021649930598686262 0.52644192877857221 0.32646558521157476 0.35139511433837362 0.17873840406497435 0.23432197644270594 -0.37629128340017914 0.023220513328586052 0.49308479934735472 0.41615590963849919 0.05957177335781811 0.12087229820910314 0.16732329769841739 0.41318648919644091 0.44523317575554827 0.39766120120205972 0.24791345022125238 0.32840465553599202 0.42650029166389969 0.25514718095663647 0.061182606609893463 0.41741579764816233 0.10967866171082194 0.42817406634668942 0.0029833681803181937 0.31270213033803196 0.2477057674332642 0.49387905214389999 0.46122807073498834 0.2652589414885973 0.38839358561063597 0.30527907390782255 0.28225481292861376 0.095725398465588488 0.35256271517842164 0.028115047496929797 0.40642237464126957
leaf_weight=176163.5715277493 585.84894955158234 616.83695591986179 531.64995945990086 874.36915993690491 563.96359853446484 5292.1782809346914 128.0731942653656 96.677956879138947 73.300583481788635 70.18140971660614 73.419167518615723 66.133749395608902 139575.68536758423 1367.5417593419552 64.567515403032303 96.780479058623314 111.43109001219273 212.83669506013393 8421.5701238811016 380.37240365147591 427.56147354841232 159.50595699250698 1073.3877077698708 628.6559920758009 417.39367109537125 569.51615230739117 133.37379610538483 51.466367125511169 340.18160037696362 869.44564998149872 36.117940962314606 1107.2490191608667 42.107276633381844 1932.1767174601555 121.78051336109638 2180.0652769207954 178.27505765855312 107.18996568024158 69.562402039766312 83.882570654153824 51.639431953430176 94.175356447696686 459.32251596450806 99.352242693305016 131.0933712720871 36.57975447177887 66.400320276618004 609.36778576672077 184.07893824577332 66.765289917588234 79.391796082258224 723.64849719405174 483.47639964520931 436.18316701054573 220.83243711292744 433.35377834737301 141.37432011961937 99.454154998064041 335.58096854388714 53.013141140341759 99.401689648628235 78.781937077641487 69.701146841049194 169.67630860209465 507.92887827754021 298.99538676440716 4751.1292474120855 1599.6635013967752 1252.3308205008507 302.51510293781757 100.02730068564415 44.94106313586235 75.166902616620064 100.47127796709538 60.960412964224815 830.47684991359711
leaf_count=781438 2525 500 381 571 2477 3589 87 65 47 45 47 77 89528 1200 74 243 223 161 5461 375 321 134 1059 508 441 778 221 33 1509 563 72 907 78 1570 115 1581 254 70 60 183 32 107 485 162 186 111 131 397 163 128 139 1209 441 343 207 590 165 90 470 101 91 142 62 386 592 406 3051 1190 1672 300 120 62 144 103 130 737
internal_value=0 0.472198 0.0277554 0.47525 0.131297 0.478158 0.417067 -0.343256 -0.492844 -0.493253 -0.301118 -0.390747 0.489191 0.345385 0.460848 0.366844 0.378568 0.22769 0.491177 0.459774 0.346617 0.339855 0.322984 0.340206 0.249298 0.232412 0.307289 -0.493646 -0.364118 0.414401 0.397042 0.408202 0.32893 0.480925 0.218714 0.449395 0.11938 0.325733 0.226998 0.195257 0.260955 0.291889 0.255813 0.134936 0.119855 0.0315605 0.204744 0.416142 0.297246 0.296018 0.254017 0.147694 0.40142 0.376663 0.351891 0.310953 0.272652 0.273485 0.29411 0.267129 0.292229 0.216506 0.27289 0.0678897 0.342183 0.289444 0.478606 0.469209 0.284347 0.338107 0.231078 0.0357238 -0.0260134 0.473195 0.135964 0.442499
internal_weight=0 184344 1257.05 183087 1535.01 181552 27773.5 660.642 176699 176625 725.402 651.983 153779 10531.1 17242.4 8608.58 7939.62 668.961 151761 12185.3 5471.37 2017.88 4103.83 1831.55 1922.51 1794.44 3676.27 176555 391.648 4768.96 3899.52 3603.98 2954.45 10353.7 721.823 2468.25 456.124 288.183 180.993 1377.05 295.532 1202.9 822.526 363.204 301.047 169.954 243.893 3460.64 1881.06 1401.04 733.607 807.531 2750.8 1643.55 1207.36 723.887 177.492 666.842 587.45 487.996 434.983 143.349 503.055 269.029 667.435 420.776 12473.4 7722.32 1696.98 444.65 142.135 277.849 171.947 709.839 105.901 2430.14
internal_count=914416 131344 3030 128314 3113 125201 24374 2542 783072 783025 2649 2602 100827 11578 12796 8880 7886 994 98582 9054 5952 2245 4752 2023 2698 2611 4431 782980 1542 4229 3666 3266 3392 7031 1039 1934 833 353 283 2170 400 1515 1140 655 518 332 368 3050 2333 1745 1019 1392 2550 1643 1300 859 237 891 752 662 561 216 652 548 726 521 8567 5516 2170 498 198 579 387 500 192 1927
is_linear=0
shrinkage=0.324382


Tree=2
num_leaves=77
num_cat=0
split_feature=12 1 39 9 22 28 32 2 16 32 16 32 22 4 153 16 20 28 173 22 21 9 5 25 28 168 25 5 5 20 4 25 24 32 21 18 16 32 22 21 183 24 22 19 5 5 28 16 5 22 28 28 21 28 16 21 28 21 5 31 18 2 4 32 22 16 16 23 16 5 32 31 24 19 32 22
split_gain=482933 2692.42 1828.94 1387.73 1159.81 834.771 707.789 600.691 469.784 416.867 625.032 204.883 148.529 118.245 113.052 112.222 106.077 103.409 76.2917 98.3047 147.838 74.1938 68.4965 66.5595 61.949 61.6793 55.6725 49.1984 58.0798 45.4102 44.3106 43.3412 58.2152 43.1034 67.3408 42.3843 41.4221 38.3925 33.9926 33.4085 29.0886 28.8226 28.4983 28.402 28.07 57.4437 28.0533 27.9129 27.5123 24.9226 29.8188 47.0948 45.6172 30.3601 25.7394 26.0977 24.8045 95.1394 22.8695 21.7829 21.7169 20.9046 20.4129 69.9966 24.6 22.6216 20.2963 20.1221 24.7828 37.5505 20.0419 19.9832 27.0817 21.2605 19.426 22.4099
threshold=1.0000000180025095e-35 0.35651854951361822 1.0000000180025095e-35 2.5436874288227123 -0.51997498610718229 -1.086742722081061 -1.4235475207258894 -1.1924586164418274 -0.71172966491770728 -1.1788571614070722 -0.61926761603462699 -0.54457957549144831 0.22243406981635641 -0.087190408537736533 1.0000000180025095e-35 0.58273901944541773 -0.42701471073069147 -0.8658855044914201 1.0000000180025095e-35 -0.007648349626465099 -0.34931467132570987 2.5436874288227123 1.0000000180025095e-35 -0.031676782329303398 -1.086742722081061 1.0000000180025095e-35 -1.2301627970687494 1.0000000180025095e-35 0.85024168966077773 1.101389964543021 -0.084249502077072894 0.12678607912998405 -0.29675862280713677 -0.45945041754046795 1.0000000180025095e-35 -0.29241188467759888 -0.61926761603462699 -0.15906465377425485 0.22211763093679102 1.1331606958323255 1.0000000180025095e-35 -0.20644241533273722 -0.019793563121901697 -0.33846681385937233 0.85978258023185117 0.86265586459782806 -0.8658855044914201 -0.71172966491770728 0.8563108418522245 -0.17645155299113777 1.577954877993909 -0.36369046065178495 0.58826388526356099 -0.67175714983198431 -0.43434351826846623 0.91821798606416249 -0.25933654353710883 1.0000000180025095e-35 1.0000000180025095e-35 0.87471955879767449 -0.53687184812439781 1.0000000180025095e-35 -0.087190408537736533 -0.14260491439670547 -0.006121826718049699 -0.43434351826846623 -0.61926761603462699 -1.6259751399864786 -0.43434351826846623 0.87120917384004348 0.45476173601030345 0.87471955879767449 -0.29675862280713677 -0.33846681385937233 -0.14260491439670547 -0.088721068287191784
decision_type=2 2 2 2 2 2 2 2 2 2 2 2 2 2 2 2 2 2 2 2 2 2 2 2 2 2 2 2 2 2 2 2 2 2 2 2 2 2 2 2 2 2 2 2 2 2 2 2 2 2 2 2 2 2 2 2 2 2 2 2 2 2 2 2 2 2 2 2 2 2 2 2 2 2 2 2
left_child=1 26 3 6 -5 21 7 14 38 16 47 25 13 18 -2 22 -8 -17 19 20 -13 -3 -12 -21 36 -10 -1 -27 -29 31 35 40 39 34 -19 37 -16 41 -6 -33 46 71 49 60 48 -46 -24 -11 -30 50 51 53 66 -22 55 -54 -53 58 -58 -51 -38 -31 64 65 -48 -64 -52 -47 69 -69 -57 73 -73 -15 75 -49
right_child=2 5 -4 4 8 -7 9 -9 11 10 15 12 -14 30 24 17 -18 33 -20 23 42 -23 29 -25 -26 27 -28 28 44 61 -32 32 -34 -35 -36 -37 43 -39 -40 -41 -42 -43 -44 -45 45 67 62 74 -50 59 52 56 54 -55 -56 70 57 -59 -60 -61 -62 -63 63 -65 -66 -67 -68 68 -70 -71 -72 72 -74 -75 -76 -77
leaf_value=-0.1078170056917347 0.42108975979081598 -0.025188868534359463 -0.4278460442861553 -0.42867194156381644 0.37460447688501575 0.42520147021027943 0.4277718698379735 -0.42867194156381644 0.40123439706352265 0.42339274949643219 0.37266447267712671 0.39724361246471535 0.4239299947867653 0.026985807984158158 0.37963487647814448 -0.31975903264703914 -0.12481244881118872 0.29587752557124769 0.40432250066432568 0.057290619394347167 0.25905062853299521 -0.44256661176887413 0.20450088526783439 0.3506370482349489 0.27096680545187601 0.26752345556636842 -0.42786315627199145 -0.14503476217518527 0.14899579524345111 0.42717853702201369 0.3375329444937713 -0.14124009405575091 0.34679069947114699 0.31373199905557625 0.032390479288168551 0.35349337716615747 -0.088740610852939841 0.32961312010780669 0.42728900833807276 0.15079310154251907 0.070468538615788626 -0.23883258023886589 0.0042863582632870116 0.29512660490601916 -0.13308449866286626 0.20746483133191485 0.29400569490119671 0.38840389111274731 0.354625817153985 0.21318005220496147 -0.13594698624771975 0.34218400557191941 0.3571223629776627 0.068368499814376385 0.33776610859579148 -0.064022431741572738 0.21592830352493997 0.31899061339237295 -0.033637289280528754 0.3298342267654169 0.1037713614463882 0.31941927400716663 -0.053146196929329634 0.40808991461892075 0.37875802142302817 0.19879948706297257 0.09587475867759343 0.15109552532379097 0.17096228424983559 -0.17313661067863603 0.2069734226268351 0.070762311921913956 -0.2157090112830215 0.31488905712300297 0.41671385211943401 0.30690269425280942
leaf_weight=57.21399712562561 441.51990821957588 62.021187663078308 276.66893908381462 220.36533017456532 2872.8901738375425 509.01705175638199 113521.26860375702 135.86433890461922 105.24680940806866 11027.044478327036 1370.0186894834042 561.63692937791348 855.07297064363956 65.92527149617672 54.196673512458801 42.297261089086533 36.566129192709923 173.72884659469128 579.85628670454025 85.096770018339157 134.81665526330471 161.53803673386574 370.9757744371891 1867.5587616860867 1185.8874002695084 266.96060994267464 143531.69912377 85.275800406932831 220.59044739603996 298.74438938498497 85.762062802910805 68.023779258131981 99.959651976823807 238.22091110050678 247.42328764498234 52.059546366333961 100.82655195891857 42.202827766537666 2336.8339221030474 104.60834729671478 65.64851076900959 45.435185328125954 66.304687663912773 50.383909568190575 98.24324107170105 237.0092249661684 2234.9567390531301 1379.6753333806992 99.277927160263062 326.31821438670158 45.566013723611832 322.29636259377003 45.200085207819939 252.26365853846073 142.51685084402561 59.750767901539803 54.53189292550087 403.26361872255802 132.55247928202152 348.11993123590946 158.72400243580341 517.68369597196579 77.790976226329803 110.89922821521759 429.64456737041473 72.399745091795921 310.782291457057 74.449929565191269 159.52065770328045 75.905035674571991 55.28711199760437 92.370057061314583 55.640087679028511 45.69789519906044 1538.9390974491835 477.98670543730259
leaf_count=223 355 196 1509 1197 2651 413 89509 738 90 8799 1286 483 681 142 49 202 131 198 491 170 167 834 528 1842 1429 323 782802 212 357 235 95 161 100 258 522 53 228 46 1845 160 179 124 129 60 232 344 2552 1230 106 453 107 329 45 442 148 126 74 440 268 366 276 577 173 93 394 112 532 121 247 188 77 170 150 54 1255 533
internal_value=0 -0.424571 0.405409 0.40694 0.309622 0.195722 0.416902 0.23126 0.32144 0.419838 0.377791 0.274682 0.297096 0.279823 0.276281 0.294468 0.427594 0.171917 0.292704 0.28029 0.245825 -0.326775 0.309239 0.337853 0.235032 0.162272 -0.427736 0.143178 0.111572 0.289719 0.125981 0.274191 0.14979 0.203457 0.141081 0.0805472 0.118002 0.0396297 0.398236 0.0357207 0.284277 -0.000486246 0.214322 0.0722515 0.134248 0.095292 0.288534 0.415473 0.212817 0.219611 0.201094 0.229594 0.144892 0.134781 0.237476 0.148277 0.269807 0.230294 0.0391068 0.273393 0.028987 0.35885 0.29919 0.21263 0.307671 0.0683047 0.0662319 0.136318 0.081901 -0.0125895 0.066218 0.0412238 -0.0369282 0.144852 0.389761 0.367433
internal_weight=0 144321 150895 150618 13986.5 732.576 136632 2127.4 13766.1 134505 20946.7 8556.36 7133.89 6278.81 1991.54 6523.02 113558 701.67 5793.72 5213.86 3261.21 223.559 5821.35 1952.66 1550.02 1422.48 143589 1317.23 1050.27 4451.34 485.093 3634.91 272.592 659.373 421.152 399.331 364.131 347.271 5209.72 172.632 3362.32 305.068 2699.57 309.934 964.996 645.128 3296.67 14423.6 319.868 2633.27 1958.83 1299.72 659.103 387.08 302.755 160.238 912.644 590.348 187.084 674.438 259.551 816.428 2925.69 261.09 2664.6 150.191 356.348 546.885 309.876 150.355 115.038 259.633 148.01 111.623 3396.6 1857.66
internal_count=914416 784468 129948 128439 16117 1443 112322 3135 14920 109187 19547 10424 8204 7523 2397 7730 89640 1180 6689 6198 4186 1030 6550 2012 2042 2220 783025 2130 1807 5264 834 4452 421 978 720 739 613 686 4496 321 4031 640 3703 564 1595 1132 3852 11817 463 3574 2755 1720 1035 609 396 248 1111 782 342 819 504 812 3324 378 2946 285 639 900 556 309 203 516 320 196 3018 1763
is_linear=0
shrinkage=0.324382


Tree=3
num_leaves=77
num_cat=0
split_feature=0 32 16 28 19 183 22 147 105 145 25 29 16 28 1 21 22 8 20 21 25 29 0 168 153 6 5 16 22 28 5 21 19 19 28 32 5 7 32 16 16 16 28 21 20 0 23 28 31 16 7 4 28 21 21 168 24 5 16 5 28 0 27 32 22 25 28 3 147 17 22 4 21 168 29 28
split_gain=312786 1867.98 1670.52 867.799 594.059 453.644 450.008 375.68 271.47 260.13 191.694 167.667 160.697 156.209 164.907 126.762 94.8484 79.3908 73.8568 68.216 62.1604 61.5169 91.6745 94.6669 59.5221 53.188 52.2511 51.4758 46.1916 52.4752 75.5942 64.0902 46.1037 42.4049 37.1845 36.1211 34.9569 30.3859 33.8524 29.6363 29.495 41.6372 29.3361 30.4607 35.6454 30.2408 58.5386 35.6121 28.7358 28.1761 41.1123 27.9362 31.171 29.2761 25.9065 25.2258 24.5663 24.5243 25.0901 23.9129 22.6618 22.3782 22.3091 21.8827 21.285 21.1501 110.883 20.5046 19.2936 19.2487 18.8471 34.2781 23.3908 41.5075 43.1894 18.6373
threshold=-0.022636031134582447 -1.1788571614070722 -0.61926761603462699 -0.89563738026450379 1.1218851043730409 1.0000000180025095e-35 -0.51997498610718229 1.0000000180025095e-35 1.0000000180025095e-35 1.0000000180025095e-35 -0.031676782329303398 -0.03574408015504394 -0.71172966491770728 -0.8658855044914201 2.9280564763026686 -0.34931467132570987 0.22243406981635641 2.8078773568111779 1.247602075684169 -0.41015672369830014 -0.16019409766682127 0.39895606987401455 2.553944901256942 1.0000000180025095e-35 1.0000000180025095e-35 -0.038019082348671997 1.0000000180025095e-35 -0.15695737161922513 -0.088721068287191784 -0.75210035590285496 0.8691577721953162 1.1331606958323255 -0.33846681385937233 -0.17620548961132643 -1.086742722081061 -0.58066077933251548 0.88224091119180714 0.027140028079000806 -0.54457957549144831 -0.52680556715154658 -0.52680556715154658 -0.34188146938538583 -0.8658855044914201 -0.39148733984721773 1.101389964543021 2.553944901256942 -1.378403245263794 -0.19983052328006523 1.0376981711838689 -0.34188146938538583 1.0000000180025095e-35 -0.086812291992794083 1.577954877993909 0.58826388526356099 1.0000000180025095e-35 1.0000000180025095e-35 -0.41082696704812033 0.84906240914492581 -0.064495322736144778 0.86670137847507756 -0.10530483168510084 2.553944901256942 0.91411247175671628 -0.15906465377425485 -0.17645155299113777 -1.2301627970687494 -0.69809422442460967 1.0000000180025095e-35 1.0000000180025095e-35 -0.60589869644333416 0.22211763093679102 -0.087190408537736533 -0.34717392886338294 1.0000000180025095e-35 -0.20005215875254898 2.953721413461095
decision_type=2 2 2 2 2 2 2 2 2 2 2 2 2 2 2 2 2 2 2 2 2 2 2 2 2 2 2 2 2 2 2 2 2 2 2 2 2 2 2 2 2 2 2 2 2 2 2 2 2 2 2 2 2 2 2 2 2 2 2 2 2 2 2 2 2 2 2 2 2 2 2 2 2 2 2 2
left_child=8 3 12 7 5 10 -7 24 9 65 13 18 37 14 -4 25 17 42 27 64 -19 22 33 -24 -2 69 -25 28 -12 30 -30 40 36 60 39 -22 48 -3 55 -26 -31 59 43 -14 -45 46 47 -44 56 50 -28 52 67 -54 -13 -39 62 58 -51 -42 -17 -5 -21 -53 -16 66 -1 -37 -20 -15 71 72 -40 -74 -75 -59
right_child=1 2 4 61 -6 6 -8 -9 -10 -11 11 54 16 15 19 21 -18 20 68 32 35 -23 23 26 34 -27 49 -29 29 31 -32 -33 -34 -35 -36 51 -38 38 70 -41 41 -43 45 44 -46 -47 -48 -49 -50 57 -52 63 53 -55 -56 -57 -58 75 -60 -61 -62 -63 -64 -65 -66 -67 -68 -69 -70 -71 -72 -73 73 74 -76 -77
leaf_value=-0.39432922451015684 0.35716481988508103 0.38179506326301049 -0.29884186189388007 0.19615427646907471 -0.3926431967851895 -0.37523575141941962 0.35195060050345583 -0.36812249404629516 0.39228867550490826 0.39228867550490826 0.24006901072190781 0.26836336385060389 0.3823711698734828 0.30041671775797246 0.2065150061774407 0.005483242764681321 0.3894718296494486 -0.16262270531069656 0.39869783188507557 -0.026739910166691087 0.012747186182933355 0.38675679185136097 0.38062919946203971 0.26197594135602625 0.29134487243812213 0.36788938935892618 0.25380780141393605 0.32443279246328405 0.25122985441052276 0.10306245110264087 -0.25008334743652472 0.13038869062560263 0.22166295658158103 0.28596951398402742 0.20947667568483602 0.26635076178712891 0.33847151814499915 0.36564151667025357 0.39757820819327416 0.044659084599074604 -0.54354564696410668 -0.0074154024244155927 0.22863117056140123 -0.12482857912846994 0.27014726445285786 0.34914278852133634 0.36636966083898903 -0.14218815775905602 0.13765488821354205 0.18840445964601599 0.14740629517809117 0.0035933523398182588 -0.050138375907878847 0.21500289375696299 0.36941853459159996 0.041459527648885913 0.11598136158365499 0.12783631720225871 -0.13515022132370824 -0.18387104943032792 0.24051879631412554 0.39167214288958557 -0.25812393565003938 0.29078269191171741 0.41467335705023989 -0.39183080793730946 0.15779389494836321 0.37980002068199598 0.26566705401540275 0.1844254082873174 0.39038329001996452 0.16260926188353575 0.35959724914369129 0.068678166169692079 0.30367685400811761 0.23542788431965428
leaf_weight=227.80567502975464 228.41936638951302 10232.284111917019 106.97811144590378 61.640783846378326 177.23505952954292 268.0883622020483 134.45521304011345 130.64095824956894 46.541839241981506 44.561335444450378 285.19266472756863 327.61289463937283 52.908087283372879 263.33059898018837 267.64855279028416 470.14383989572525 1093.0087670087814 41.378262266516685 141.94980555772781 344.88927273452282 70.729039013385773 155.39041844010353 274.89417259395123 716.96832637488842 62.12196010351181 636.32753467559814 689.91875867545605 169.28615725040436 254.35190142691135 42.565892621874809 36.149007543921471 206.61398638784885 178.62522438168526 76.386655405163765 1039.421892374754 1004.7669473141432 38.365696236491203 40.81609334051609 576.64301849901676 292.66912573575974 38.846113562583923 62.187233701348305 56.605552524328232 47.298634007573128 48.896987721323967 1728.7206161767244 141.30760848522186 52.550219282507896 165.1180153042078 39.836970061063766 856.4615702778101 81.825664535164833 52.659736350178719 261.04198840260506 1441.2306750863791 66.255929976701736 111.95602196455002 1133.7859380692244 68.723512589931488 38.955098360776901 47.529724925756454 88238.87305277586 50.231931835412979 42.375278890132904 64.060966372489929 111339.635875687 46.003576964139938 201.20246969163418 597.92245648801327 351.4856691211462 871.68499906361103 116.93695358932018 808.94894473254681 119.98811762034893 261.94206407666206 199.17051684856415
leaf_count=1571 247 10614 573 152 1234 1719 144 859 47 45 370 420 51 307 373 989 1107 208 138 723 141 155 270 902 73 654 872 182 325 72 94 331 245 91 1417 1253 42 43 549 552 133 124 79 107 62 1865 146 133 261 57 1320 162 114 361 1472 148 183 1846 165 96 64 89509 136 50 56 781299 110 204 761 537 886 179 851 216 311 259
internal_value=0 0.363811 0.293122 0.387049 0.196652 0.205851 -0.132345 0.161068 -0.39097 -0.391297 0.218283 0.279071 0.354672 0.187983 0.0873384 0.210329 0.305057 0.281303 0.21146 0.121176 0.230248 0.186038 0.179219 0.196962 0.203674 0.302147 0.183335 0.159447 0.130501 0.0845251 0.188848 0.00665156 0.0743444 0.0603541 0.178526 0.239729 0.0373106 0.37353 0.343991 0.0878524 -0.133393 -0.205292 0.323427 0.184675 0.0759407 0.33388 0.228539 0.0501098 0.0201217 0.164464 0.194877 0.249495 0.261584 0.170495 0.350702 0.165038 -0.0181502 0.131838 -0.0164197 -0.363456 0.0270628 0.391536 -0.0561559 0.101578 0.246715 -0.391609 -0.301565 0.285278 0.29119 0.234105 0.350943 0.332699 0.343952 0.317985 0.229849 0.143913
internal_weight=0 119657 29603.6 90053.8 11530.9 11353.6 402.544 1753.27 111705 111658 10951.1 3642.86 18072.8 7308.23 1327.87 5980.35 4977.28 3884.27 1874.02 1220.9 1755.98 4729.21 4573.82 3979.76 1622.63 1251.14 3704.87 1134.15 964.862 679.669 290.501 389.168 889.186 594.06 1394.21 1714.6 710.561 13095.5 2863.22 354.791 182.554 139.988 2128.29 149.104 96.1956 1979.18 250.463 109.156 672.195 2987.9 1546.38 1643.87 1519.67 313.702 1768.84 107.072 507.077 1441.52 108.56 77.8012 517.674 88300.5 395.121 124.201 331.71 111613 273.809 1205.97 739.872 614.816 2756.14 1884.46 1767.52 1190.88 381.93 1332.96
internal_count=914416 131344 38535 92809 18695 17461 1863 3148 783072 783025 15598 4518 19840 11080 2592 8488 6043 4936 2626 2019 2493 6990 6835 5691 2289 1498 5421 1727 1545 1175 419 756 1590 1144 2042 2285 1345 13797 3183 625 425 353 2443 220 169 2223 358 212 1303 4519 2192 2144 1932 475 1892 191 1042 2327 222 229 1053 89661 859 212 429 782980 1681 1457 899 844 2992 2106 1927 1378 527 2105
is_linear=0
shrinkage=0.324382


Tree=4
num_leaves=77
num_cat=0
split_feature=12 21 32 131 32 183 39 29 7 28 2 17 29 28 12 23 21 153 173 21 8 173 32 5 28 4 173 29 5 21 5 5 5 28 5 24 28 21 21 5 26 5 21 29 5 17 21 5 19 32 5 5 5 28 29 29 28 186 5 5 5 32 12 5 171 17 5 21 21 24 3 28 27 5 5 29
split_gain=208254 1752.56 1188.4 1027.46 545.293 452.999 377.362 359.472 245.223 239.201 220.332 164.197 226.866 138.244 136.595 105.906 112.103 99.2418 81.1997 107.319 73.0286 67.7262 72.4098 52.4218 48.8899 44.0328 110.838 63.082 39.5522 39.1187 36.7804 44.5503 130.665 36.6579 33.4166 31.3016 30.0823 64.5851 40.902 30.0587 29.2725 29.0197 28.2697 37.6023 28.1955 28.1055 28.0935 27.8925 33.1079 27.0227 26.1432 24.981 39.2599 24.5504 24.3182 24.0026 23.3234 39.2543 23.178 36.1429 22.7035 22.4135 21.8426 27.2861 21.4212 21.2408 21.2013 20.3416 20.1066 26.5204 34.667 28.071 25.585 19.8143 27.0655 19.3085
threshold=1.0000000180025095e-35 -0.52452492730378564 -1.4235475207258894 1.0000000180025095e-35 -0.14260491439670547 1.0000000180025095e-35 1.0000000180025095e-35 -0.03574408015504394 -0.024386566600160746 -0.8658855044914201 -1.1924586164418274 -0.60589869644333416 -0.12190458078812398 -0.89563738026450379 4.7408901896208819 -1.335573805416171 -0.032226275330978195 1.0000000180025095e-35 1.0000000180025095e-35 -0.34931467132570987 2.8078773568111779 1.0000000180025095e-35 1.343111018331506 0.85978258023185117 0.13312641622079577 -0.087190408537736533 1.0000000180025095e-35 -0.03574408015504394 1.0000000180025095e-35 -0.10523626938477854 0.86354296911143413 0.87313894565578165 0.87558300011800683 -0.25933654353710883 0.84906240914492581 -0.55897163370245806 1.577954877993909 0.58826388526356099 0.91821798606416249 0.8691577721953162 0.84477619821412919 0.88224091119180714 -0.34717392886338294 -0.20005215875254898 -1.1704422536177892 -0.36018136623388364 1.0000000180025095e-35 0.85710407986737147 -0.33846681385937233 -0.45945041754046795 0.86482228575475173 -1.172255243170186 1.0000000180025095e-35 -1.086742722081061 -0.19063905472852868 -0.20005215875254898 3.2904356067101017 1.0000000180025095e-35 0.87997709803413493 0.87670058434379161 0.88114536135533184 1.2700994731859394 3.2773206648228084 -1.1704422536177892 1.0000000180025095e-35 -0.2373227011291584 0.88114536135533184 0.03410461839130121 -0.13768673244913487 -0.41082696704812033 1.0000000180025095e-35 -0.19983052328006523 0.83361234191666334 0.87446982277008389 0.87120917384004348 0.27875847497941392
decision_type=2 2 2 2 2 2 2 2 2 2 2 2 2 2 2 2 2 2 2 2 2 2 2 2 2 2 2 2 2 2 2 2 2 2 2 2 2 2 2 2 2 2 2 2 2 2 2 2 2 2 2 2 2 2 2 2 2 2 2 2 2 2 2 2 2 2 2 2 2 2 2 2 2 2 2 2
left_child=3 2 6 56 5 9 10 8 -6 13 17 12 18 29 24 16 44 -2 19 55 49 22 36 47 62 26 27 28 -13 45 40 39 -33 -18 -30 -7 54 -38 -39 50 -25 65 43 -36 -14 -3 51 48 -15 -21 -32 -22 -53 -19 -10 -11 -1 -58 59 73 67 -23 -4 -64 -56 -27 -40 -44 75 -70 71 -71 -72 74 -54 -46
right_child=1 4 14 -5 7 35 -8 -9 21 11 -12 25 15 23 -16 -17 33 53 -20 20 46 61 -24 30 -26 41 -28 -29 34 -31 31 32 -34 -35 42 -37 37 38 66 -41 -42 -43 60 -45 68 -47 -48 -49 -50 -51 -52 52 58 -55 64 -57 57 -59 -60 -61 -62 -63 63 -65 -66 -67 -68 -69 69 70 72 -73 -74 -75 -76 -77
leaf_value=-0.36887829909475633 0.35208369384426008 0.20288572337980024 0.36968838027373518 0.37176912860679462 0.36287188510950558 -0.39653072465743694 -0.36985672833146183 0.36631421003085252 0.30849242439717561 0.361891053968457 -0.37139296432528446 0.24333995107899312 0.26631764380241402 0.041475420398328106 -0.23903756178280497 0.32498848537483632 -0.03979771713221255 0.061828935793502349 0.3697084921927466 0.22988746799830809 -0.11795026572723795 0.36521502647618997 0.29055296730664759 -0.027218368111151844 0.225611649909884 0.085017795591811079 0.36003378582944801 0.29692343646504832 -0.02014737735881943 0.36733080305053961 0.27451454192468283 -0.48146807194614877 0.058041953413458532 0.27383870289904644 0.30718963956308282 -0.095204922897723532 0.0012902259822657489 0.30736972115724098 0.10937154841588267 0.3202760872861517 -0.38743287197617182 -0.15094483247738691 0.099506321866640907 0.068834258971284687 0.094558485304563927 -0.07890683547945998 0.26475688858552421 0.32229407241134106 0.25177504120705696 0.32299464428192293 -0.033832510701710013 0.37305692349489317 0.1290961053348447 0.16418848547850334 0.020270883232065037 0.20374603628233043 0.012547617507747313 -0.37164679170518483 0.3015319116124619 -0.18720303355651075 0.29587358504764227 0.20451351503961551 -0.0075969142926831561 0.38558939577654755 0.29995138619529338 0.34662949711044266 0.33732799860623902 0.1761588159749839 0.18002894098704422 -0.014933447065897228 0.16603630929711899 -0.30574603406267292 -0.016004705186468581 0.31176467422756465 -0.12000489292821895 0.26776292321924394
leaf_weight=84799.048871971667 275.43048561364412 531.58897245675325 67670.472207017243 197.65127050876617 1073.2217550501227 121.09710434824228 162.7230207696557 5902.4327480718493 152.2209030687809 1303.2687982618809 81.591492936015129 471.94002766907215 87.277906104922295 378.46599085628986 38.902866125106812 448.57470857352018 41.790382914245129 334.10976599156857 1495.459994263947 578.29097462445498 40.524782843887806 228.9690039306879 329.62752738595009 45.546189300715923 249.40538343787193 285.57328046858311 388.17559916526079 395.67692060768604 129.29229794442654 154.02519544959068 38.431980952620506 64.949463985860348 173.20017742365599 635.75228936225176 234.32286790013313 51.788310468196869 436.8723740875721 150.36349272727966 737.096524707973 55.601228639483452 49.578113548457623 49.877054817974567 1106.0748451948166 99.095115505158901 422.14566949009895 40.048880442976952 211.20325592905283 58.639084041118622 99.475553870201111 757.84389934688807 117.05981034785509 70.345422744750977 335.67419388145208 940.86564129590988 83.732378676533699 109.46802060306072 45.279512047767639 73.256852850317955 62.46207369863987 44.442814946174622 85.828101277351379 151.91467452049255 36.267056070268154 38.064375720918179 43.936484903097153 36.873124375939369 45.586296588182449 543.19196178764105 107.05859391391277 87.880250349640846 138.07431720942259 57.960619419813156 197.35476357489824 50.107551321387291 53.165767326951027 80.665161967277527
leaf_count=783308 355 805 90470 257 1391 1020 1509 7725 183 1635 738 658 120 720 240 604 90 613 1906 864 92 286 463 97 380 519 487 541 273 200 47 214 318 903 310 258 853 183 1265 63 153 125 1911 176 746 127 271 66 130 988 243 71 547 1429 172 160 226 677 74 108 113 242 183 43 57 42 51 845 165 186 232 170 432 57 120 115
internal_value=0 0.336353 0.361747 -0.366958 0.257747 0.215369 0.1012 0.317767 0.234312 0.22228 0.148168 0.239885 0.26804 0.112721 0.36862 0.183542 0.149355 0.17551 0.306131 0.279843 0.235108 0.175856 0.151753 0.0391998 0.368968 0.185304 0.19673 0.176051 0.158136 0.222238 -0.0317224 0.00707688 -0.0890962 0.254494 0.13984 -0.306268 0.124021 0.104222 0.152417 0.115577 -0.21496 0.0793166 0.14984 0.236348 0.0889049 0.183143 0.161847 0.111151 0.0852458 0.282697 0.0423798 0.12875 0.144975 0.137365 0.220927 0.349637 -0.368677 -0.224889 0.115581 0.0915534 0.133217 0.30112 0.369495 0.19375 0.116521 0.114934 0.122649 0.124752 0.074714 0.0340062 0.00152339 -0.130509 0.0589297 0.119777 0.0950367 0.122345
internal_weight=0 92386 69827.8 85115.2 22558.2 13222.2 1794.72 9335.97 3433.54 13049.3 1632 11242.7 7416.79 1806.61 68033.1 2304.53 1855.96 1550.41 5112.26 3616.8 2204.06 2360.32 1979.44 1080.95 67994.2 3825.92 3453.6 3065.42 2669.75 725.663 544.367 449.243 238.15 677.543 2197.81 172.885 1649.81 1369.92 933.046 211.093 95.1243 372.323 2068.51 333.418 1178.42 571.638 867.926 536.581 477.942 1336.13 155.492 656.723 616.198 1274.98 279.89 1412.74 84917.6 118.536 545.852 483.39 1735.09 380.884 67744.8 74.3314 127.669 322.446 782.683 1649.27 1091.14 588.329 481.27 145.841 335.429 438.948 388.84 502.811
internal_count=914416 129948 95960 784468 33988 21117 4644 12871 5146 19839 3135 16656 10656 3183 91316 3763 3159 2397 6893 4987 3192 3755 3227 2051 91076 6000 5314 4827 4286 1132 1135 885 532 993 3628 1278 2764 2352 1499 353 250 686 3355 486 2166 932 1340 916 850 1852 290 1069 977 2042 412 1795 784211 903 906 832 2869 528 90696 226 229 561 1316 2756 2046 1185 1020 356 664 724 667 861
is_linear=0
shrinkage=0.324382


Tree=5
num_leaves=77
num_cat=0
split_feature=0 32 16 32 19 16 25 2 25 39 183 10 187 7 24 32 16 7 18 25 0 173 5 5 32 19 25 30 32 10 17 7 32 18 32 4 4 2 31 5 24 13 32 30 18 16 16 4 7 16 5 32 5 6 173 0 32 25 32 23 27 27 18 32 25 23 5 5 5 17 16 18 5 4 17 5
split_gain=142042 2275.51 1431.41 811.286 221.235 205.12 160.358 131.347 122.832 179.229 104.583 279.063 101.177 89.5431 65.2975 53.7166 49.2471 47.0372 41.2269 42.299 37.561 105.251 44.6476 39.8237 35.5143 30.3291 27.7118 30.775 26.2481 24.0079 23.4128 28.0513 35.7506 28.7999 30.1518 23.1372 53.6806 22.3326 29.8978 24.9324 20.5757 22.3031 20.4431 20.1029 19.3345 19.1723 24.6733 18.9601 18.6817 19.4446 19.4121 21.7435 27.2392 20.5772 18.5478 33.8493 40.4226 18.5258 18.3411 23.2357 17.4222 18.1253 17.02 16.9514 16.7195 16.6556 20.4642 16.5939 20.4218 20.7122 25.2146 21.4965 17.764 16.379 22.3679 19.258
threshold=-0.022636031134582447 -1.1788571614070722 -0.61926761603462699 -1.4235475207258894 1.1218851043730409 -0.71172966491770728 -0.031676782329303398 -1.1924586164418274 -1.2301627970687494 1.0000000180025095e-35 1.0000000180025095e-35 1.0000000180025095e-35 1.0000000180025095e-35 -0.014019648355243849 -0.29675862280713677 1.0000000180025095e-35 -0.61926761603462699 0.027140028079000806 -0.65910182984779719 1.0000000180025095e-35 2.553944901256942 1.0000000180025095e-35 1.0000000180025095e-35 0.84906240914492581 -0.54457957549144831 1.0000000180025095e-35 -0.31609354437789111 1.0609974790381214 -0.54457957549144831 2.5505884741897575 -0.60589869644333416 -0.014019648355243849 -0.54457957549144831 -0.65910182984779719 -0.14260491439670547 -0.083608804598142586 -0.086728266093917983 1.0000000180025095e-35 0.87471955879767449 0.87804115658939008 -0.41082696704812033 6.0989146850763678 -0.54844153858163402 1.5761320897129723 -0.53687184812439781 -0.43434351826846623 -0.34188146938538583 -0.084249502077072894 -0.0080883920293119988 -0.064495322736144778 0.86265586459782806 -0.45945041754046795 0.85978258023185117 -0.058530659941839994 1.0000000180025095e-35 2.553944901256942 -0.45945041754046795 -0.031676782329303398 -0.29224427625257737 -0.81478844387606508 0.78471226353051016 0.88580583838686933 -0.65910182984779719 -0.22701733295402374 1.0000000180025095e-35 -0.19231069726020536 1.0000000180025095e-35 0.87997709803413493 0.87804115658939008 -0.11446403602443314 -0.34188146938538583 -0.53687184812439781 0.85358474720683597 -0.087190408537736533 -0.60589869644333416 -1.1686283826898196
decision_type=2 2 2 2 2 2 2 2 2 2 2 2 2 2 2 2 2 2 2 2 2 2 2 2 2 2 2 2 2 2 2 2 2 2 2 2 2 2 2 2 2 2 2 2 2 2 2 2 2 2 2 2 2 2 2 2 2 2 2 2 2 2 2 2 2 2 2 2 2 2 2 2 2 2 2 2
left_child=8 3 5 7 6 17 10 16 9 -1 15 -12 -5 26 18 20 -2 -3 19 -8 40 22 -22 42 -15 30 27 -7 -19 45 31 -25 -33 -34 -35 36 54 -20 39 64 -4 47 -24 -43 -44 -21 -47 73 49 -32 51 52 53 -51 55 -26 -57 -58 -59 -60 -50 -62 -61 -56 -39 66 -66 68 69 70 -18 72 -72 75 -75 -42
right_child=1 2 4 12 -6 13 14 -9 -10 -11 11 -13 -14 24 -16 -17 67 28 37 29 21 -23 23 25 35 -27 -28 -29 -30 -31 48 32 33 34 -36 -37 -38 38 -40 -41 41 43 44 -45 -46 46 -48 -49 60 50 -52 -53 -54 -55 63 56 57 58 59 62 61 -63 -64 -65 65 -67 -68 -69 -70 -71 71 -73 -74 74 -76 -77
leaf_value=0.24361827508780493 0.23731514937550871 0.33890411901205819 0.24184114713401381 -0.17721429189359086 -0.35625692468961317 0.25766754478191312 0.20926394155256545 -0.35781385487456518 -0.35590817321691248 -0.35686733672822485 0.37316274888946122 -0.3495496019270346 0.35548087196262912 0.080167069974177566 0.29599033968027072 0.3391620022274367 0.14145823500238378 0.10315633771628743 0.36379755608263525 0.045787021854683155 0.16798550712339677 0.32187150598482545 -0.24683668229204064 0.20431156232315467 0.34606472956236312 0.31413174768703667 0.33282221807570966 -0.056249921542489159 0.287850116451841 0.11467837174772773 0.13818253296804997 0.031335882486473045 0.076837394108810103 0.23741644189740538 0.044917239643609906 0.35740952097690737 0.014948951298226244 0.26116048476739051 0.23278691897091014 -0.10128104849952721 -0.052838382833356658 0.20578927158066779 0.12113129524023368 -0.010486215958889999 -0.12170401325902636 -0.34255645352612241 0.016587964827363789 0.1804683837701683 -0.061665901068953664 0.077577587110990151 0.10224690300345506 0.13520177353395579 -0.29586046543058742 -0.19484650655772037 0.34947911708840479 0.28101891206725033 0.071063082160454372 0.085577468699743683 0.25108505759554617 0.0059800183077049042 0.10068103107886722 -0.0037139721206104841 0.24621572700889252 0.20354724033158872 0.21235112885230786 0.23898520823599043 0.0060565312351942707 0.25648508218533178 -0.08274313125357674 0.26086657186077256 -0.25676386291692588 0.081437964521189982 -0.0064560554054636475 -0.054484705921301994 -0.30164049901790346 0.2201673710818764
leaf_weight=88.551110401749611 315.04829672724009 6063.4265315383673 43.02580600976944 37.546028807759285 100.52973879873753 253.1188967525959 281.87049406021833 61.976133242249489 63073.85262092948 127.76419325917959 84.835981592535973 166.66570101678371 49985.774699024856 264.12699171155691 535.18853086978197 103.75761160999537 369.15895357728004 84.997269228100777 85.839522063732147 131.41407215595245 893.22035499662161 240.84116777032614 45.989503934979439 327.61320209503174 145.96535259485245 65.276473052799702 855.01384972780943 37.76358088850975 1707.5091361403465 274.52323542535305 560.95343965291977 520.94279907643795 428.45890418440104 367.60102593898773 111.61516769230366 101.83287061005831 153.64510957896709 111.30581502616405 755.00794018805027 44.832765646278858 96.815589256584644 94.032714635133743 70.838952459394932 87.122048333287239 67.254915326833725 38.565310500562191 42.10212317854166 37.610671803355217 169.17789711803198 98.534938246011734 376.48756917566061 74.005313023924828 43.931505456566811 41.44664990156889 184.40541103482246 315.23219580948353 250.07255297899246 178.10094501078129 351.91718211770058 86.052474655210972 393.00074919313192 315.48283555358648 48.532388500869274 153.45504193007946 73.740739941596985 84.147995389997959 161.22085525840521 59.60967393219471 74.712179154157639 71.799996830523014 39.480859994888306 275.21830263733864 122.09122876822948 137.06647954881191 53.595784410834312 37.804770767688751
leaf_count=218 522 10614 90 227 1234 432 497 744 781299 1555 100 1721 89541 528 885 170 605 191 142 258 1551 381 134 568 234 90 1466 201 2992 492 985 1045 786 557 203 171 302 176 1233 116 230 136 123 180 164 116 85 63 368 207 774 125 126 154 302 510 473 324 576 178 686 644 72 274 116 125 319 78 163 94 105 483 247 319 162 59
internal_value=0 0.312104 0.219592 0.348291 0.122222 0.29651 0.127704 0.103762 -0.355071 -0.111052 0.0990947 -0.105766 0.355081 0.229682 0.194919 0.107822 0.125318 0.325257 0.16897 0.109271 0.103684 0.112444 0.102299 0.0879139 0.191859 0.0948826 0.303399 0.216913 0.279092 0.0513487 0.0911451 0.118702 0.0990705 0.137945 0.192581 0.20684 0.198629 0.203828 0.192667 0.128929 0.0258969 0.00881906 -0.059518 0.101777 0.00286487 -0.0306267 -0.155111 -0.037585 0.0677989 0.0941851 0.0552818 -0.0132739 -0.0730194 -0.00308349 0.215097 0.198374 0.180846 0.146322 0.174641 0.207245 0.0318614 0.0541947 0.092611 0.283197 0.152909 0.11515 0.0708004 0.0904537 0.0800627 0.0939204 0.0790475 0.0263003 -0.0676199 -0.0627974 -0.123961 0.0238285
internal_weight=0 71522.9 20110.5 51412.4 8875.3 11235.2 8774.77 1389.1 63290.2 216.315 6155.01 251.502 50023.3 3379.23 2619.76 5903.5 1327.12 7855.93 2084.57 768.475 5799.75 5212.67 4971.83 4078.61 2233.34 3894.53 1145.9 290.882 1792.51 486.605 3829.25 1756.23 1428.62 907.675 479.216 1969.21 1867.38 1316.1 1230.26 475.248 587.074 544.048 184.083 181.155 138.094 212.082 80.6674 362.893 2073.02 1195.36 634.406 257.918 183.913 139.982 1713.73 1375.87 1229.91 914.676 664.603 486.502 877.661 708.484 134.585 337.86 430.415 319.11 234.962 1012.07 952.462 877.749 805.949 436.79 161.572 325.283 190.662 134.62
internal_count=914416 131344 38535 92809 18695 19840 17461 3041 783072 1773 12901 1821 89768 6043 4560 11080 2297 13797 3675 1448 10910 9671 9290 7739 3944 7318 2099 633 3183 951 7228 3159 2591 1546 760 3416 3245 2227 2085 852 1239 1149 421 316 287 459 201 833 4069 2371 1386 612 487 361 2943 2367 2133 1623 1150 826 1698 1330 250 576 736 560 435 1775 1697 1534 1440 835 352 770 481 289
is_linear=0
shrinkage=0.324382


Tree=6
num_leaves=77
num_cat=0
split_feature=0 32 16 32 22 0 22 29 173 12 39 9 12 2 29 30 9 22 16 6 5 131 168 22 29 4 21 32 21 21 29 170 25 170 22 23 13 16 17 29 23 25 32 17 6 24 6 17 22 26 13 6 21 21 32 21 147 5 5 5 17 16 5 5 24 5 16 16 29 5 5 5 18 18 21 7
split_gain=97331.4 2530.36 1238.08 828.57 387.576 151.61 232.115 210.599 186.907 115.07 168.703 112.578 92.1874 82.3794 69.2427 64.9389 59.3335 93.6737 58.3781 53.3609 44.4984 40.0593 39.2164 57.4012 56.9331 43.0004 38.4533 43.4754 34.0955 64.2839 56.9711 31.5569 31.4198 27.7201 27.0692 26.7161 25.6832 25.0613 43.1867 34.4289 31.0434 29.8956 23.5644 23.2696 22.9854 22.9648 22.211 21.9531 21.6486 20.9545 21.128 20.9072 18.9884 18.9422 18.7915 19.2525 18.7396 18.5673 18.2173 19.7665 21.331 20.8786 17.7163 22.7081 22.2302 17.5021 17.4753 17.1693 19.4214 19.765 17.0418 23.3271 21.0369 16.0709 15.6269 15.6107
threshold=-0.022636031134582447 -1.1788571614070722 -0.71172966491770728 -1.4235475207258894 0.22243406981635641 2.553944901256942 -0.35215735380070928 -0.03574408015504394 1.0000000180025095e-35 1.813751140024735 1.0000000180025095e-35 2.5436874288227123 1.0000000180025095e-35 -1.1924586164418274 0.15994318509886057 1.7187836665809895 2.5436874288227123 0.22211763093679102 -0.61926761603462699 -0.055013801526535795 1.0000000180025095e-35 1.0000000180025095e-35 1.0000000180025095e-35 -0.057723480326624693 -0.03574408015504394 -0.087190408537736533 -0.34717392886338294 -0.54457957549144831 -0.38236296157378852 -0.34717392886338294 -0.20005215875254898 1.0000000180025095e-35 1.0915995599507766 1.0000000180025095e-35 -0.032958052163183489 0.28333672605881061 1.0000000180025095e-35 0.49027697056233738 0.13125329418501738 -0.20005215875254898 -1.6259751399864786 0.12678607912998405 -0.29224427625257737 -0.4830400313386089 -0.069496836341962229 -0.55897163370245806 1.0000000180025095e-35 -0.60589869644333416 -0.17645155299113777 0.92657824157030955 6.0989146850763678 -0.036616155793680695 1.0000000180025095e-35 -0.37337326632143281 -0.45945041754046795 1.0000000180025095e-35 1.0000000180025095e-35 0.87997709803413493 0.87804115658939008 0.87313894565578165 -0.2373227011291584 -0.71172966491770728 -1.172255243170186 -1.1704422536177892 -0.41082696704812033 0.87997709803413493 0.86012516609465883 -0.61926761603462699 0.23575956370171683 0.87558300011800683 0.85710407986737147 0.86482228575475173 -0.65910182984779719 -0.29241188467759888 -0.032226275330978195 0.027140028079000806
decision_type=2 2 2 2 2 2 2 2 2 2 2 2 2 2 2 2 2 2 2 2 2 2 2 2 2 2 2 2 2 2 2 2 2 2 2 2 2 2 2 2 2 2 2 2 2 2 2 2 2 2 2 2 2 2 2 2 2 2 2 2 2 2 2 2 2 2 2 2 2 2 2 2 2 2 2 2
left_child=9 3 16 13 5 6 -4 8 11 -1 -11 18 -13 21 -8 36 33 22 34 -16 66 57 23 -18 42 -26 27 -17 -24 -30 45 37 -10 -3 75 -5 53 39 -39 40 56 -41 -25 -42 54 -31 49 -43 73 50 67 -27 74 -14 55 -40 -22 58 59 60 61 -2 -55 64 -64 -65 -20 70 -69 -70 -21 -72 -73 -28 -9 -7
right_child=1 2 4 35 -6 7 14 52 32 10 -12 12 15 -15 19 26 17 -19 20 46 31 -23 28 24 25 51 48 -29 29 30 -32 -33 -34 -35 -36 -37 -38 38 44 41 43 47 -44 -45 -46 -47 -48 -49 -50 -51 -52 -53 -54 62 -56 -57 -58 -59 -60 -61 -62 -63 63 65 -66 -67 -68 68 69 -71 71 72 -74 -75 -76 -77
leaf_value=-0.34649239331912002 0.22131635088168758 0.32978562695202684 -0.33854563613241295 0.066438513181083639 0.33539921170293635 0.2518799378302673 0.35078882005422835 0.34599067597205285 0.31859834054302644 0.35169603746039479 -0.34636947806307888 -0.32927355028214988 -0.031412490947439572 -0.34782872466346543 0.29904921263789219 0.091654865092723553 0.34835235114575203 0.34486715073673169 0.2077665986272029 0.1860839224644128 0.34813637576001255 0.35464711333698812 -0.10598044864768398 -0.24281546280081082 0.33346091319471988 0.25828074293284936 0.0097448894613336237 0.30237965152058149 0.34505492218419298 -0.29238749736428271 0.1841550382094552 0.34779012338676346 0.078797662816698463 0.087515072408302197 0.040301571861017196 0.34570628729148861 0.24034629599715832 -0.15732974620424933 0.19953503423486668 0.079299728380474263 0.14074831404096955 -0.19104596070452226 0.096450120692952168 0.021080162715038001 -0.078758880414218246 0.011752071126178269 0.19203003642655642 0.04079239525787072 0.15417616099278947 0.1861868294339997 0.066124369232521338 -0.024793272217757893 0.28416078328070637 -0.079341304518387723 0.25875770248763902 -0.019168198493633912 0.16190104933955352 0.22916459064677933 -0.068353241001803261 0.22906269924743569 0.21512067788631428 0.035657558886502315 0.28298030123656764 0.023997268290899428 -0.011895553335371949 0.14998116426323382 0.03586852376724077 0.062280437867476862 -0.10189887682693825 -0.32591260104158104 -0.25306234877994949 -0.086156692532841625 0.22613102699875454 0.23382292802107593 0.14223904250796948 0.10721381949864829
leaf_weight=46646.864603534341 69.764553517103195 3958.9345514215529 188.20470516383648 36.0802331417799 817.08040805533528 548.44343042373657 77.327823288738728 49.052353784441948 451.2814823910594 61.335163474082947 89.710339821875095 67.766072317957878 591.57369876652956 45.868749506771564 70.929549895226955 205.37249080091715 333.77364030480385 795.21917925402522 509.17022001743317 45.669550180435181 99.400326773524284 59.468221187591553 56.412215031683445 41.738760247826576 176.11847379058599 43.638892076909542 396.33035752177238 206.71568024158478 138.19683562964201 43.452594861388206 191.90511535108089 47.90782505273819 65.887211754918098 50.326156347990036 89.056979276239872 36965.146026492119 56.499808892607689 116.41139413416386 68.241776332259178 742.90338417887688 623.80935557931662 82.808302715420723 44.519724808633327 235.53908269107342 80.567530110478401 65.504419885575771 61.381525225937366 89.349096551537514 217.70440354943275 52.245618686079979 182.83967903256416 74.025207489728928 739.1335352435708 131.87763381749392 73.18749825656414 111.64541874825954 132.8189938813448 83.408677741885185 91.262480325996876 88.870437182486057 93.811901025474072 737.56867550313473 77.668920889496803 1478.5566934272647 41.156896665692329 125.911950327456 70.893904209136963 54.126031935214996 180.62384320050478 53.784658886492252 39.364009261131287 54.15339969098568 39.076228514313698 36.806355930864811 205.71743280440569 91.595869906246662
leaf_count=781438 136 9035 2565 165 1795 1125 124 78 940 125 1509 776 1310 744 132 408 687 1847 931 78 181 113 179 131 367 93 789 392 280 145 421 111 142 162 192 89603 83 338 104 1360 1142 218 106 494 313 164 93 177 388 87 340 180 1451 303 102 237 264 133 202 139 144 1430 111 2883 89 207 161 113 445 176 108 127 59 50 455 191
internal_value=0 0.290438 0.185854 0.336591 0.120545 0.103092 -0.0105754 0.117045 0.0994765 -0.345577 -0.0629055 0.0863821 0.0455258 0.0789668 0.0571417 0.0526479 0.303962 0.258394 0.125312 0.0299213 0.1058 0.0949587 0.201529 0.250197 0.163991 0.232023 0.119823 0.197361 0.131414 0.161916 0.0777935 0.0870507 0.288048 0.326745 0.207862 0.345434 0.024124 0.081966 0.0127852 0.0974821 0.136385 0.0510749 -0.0677137 0.107948 0.0721402 -0.10954 0.00491143 -0.0707227 0.0707288 -0.0114526 -0.0273473 0.0801923 0.257837 0.019131 0.12018 0.0637988 0.241618 0.0816992 0.0703238 0.0831075 0.0687135 0.051701 0.0352483 0.0440174 0.180846 0.033884 0.186758 -0.0639591 -0.112858 -0.153298 0.0151882 -0.0436739 0.0447355 0.0287862 0.181469 0.231177
internal_weight=0 55160.6 16889.3 38271.2 10875.6 10058.5 1099.73 8958.76 7964.86 46797.9 151.046 7447.69 3633.94 1270.02 911.522 3566.17 6013.77 2004.51 3813.75 834.194 3084.65 1224.15 1209.29 713.815 380.041 293.783 1062.93 412.088 495.471 439.059 300.862 2504.59 517.169 4009.26 729.096 37001.2 2503.25 2456.68 450.054 2006.63 1091.57 915.061 86.2585 859.348 333.642 108.957 763.265 172.157 650.841 701.883 649.637 117.664 993.903 2446.75 253.075 179.887 232.219 1164.69 1081.28 990.016 901.145 807.333 1855.17 1723.29 118.826 1604.47 580.064 466.798 288.535 234.409 178.263 132.594 93.2296 433.137 254.77 640.039
internal_count=914416 131344 38535 92809 24738 22943 4447 18496 16512 783072 1634 15430 7789 3041 1882 7013 13797 4600 7641 1758 6133 2297 2753 1564 877 640 2027 800 1189 1010 730 5041 1082 9197 1508 89768 4986 4930 1094 3836 2081 1755 237 1636 756 309 1626 395 1227 1533 1446 273 1984 4903 443 341 445 2184 2051 1849 1710 1566 3593 3290 200 3090 1092 1106 734 621 372 294 186 839 533 1316
is_linear=0
shrinkage=0.324382


Tree=7
num_leaves=77
num_cat=0
split_feature=0 32 16 28 22 19 28 21 12 28 22 9 0 29 12 1 20 23 147 23 20 21 16 30 24 16 16 31 5 28 170 5 16 7 27 31 20 16 24 5 18 5 16 24 18 28 26 18 16 21 21 28 30 28 27 31 26 32 8 28 21 9 19 28 16 5 5 5 5 5 21 7 9 22 5 32
split_gain=67030.1 2665.22 1071.52 887.561 320.351 92.7492 92.3939 112.82 81.4773 119.038 71.1933 99.4707 68.6665 143.066 95.3544 68.139 60.8755 49.8625 48.1487 47.0577 43.4136 37.0545 41.5626 35.7104 33.5959 31.1172 31.012 30.5242 30.4519 29.9074 29.556 28.2526 27.0498 24.7669 22.8519 23.0451 21.5588 57.235 21.3759 20.999 34.7664 24.7732 20.9704 20.4524 22.0392 19.3405 18.186 17.8447 17.8204 17.692 18.4753 22.1325 17.5868 16.2537 16.7966 25.1362 21.5601 17.9427 22.0779 16.2388 21.1718 36.8072 20.7101 21.1579 20.5777 19.5221 15.3048 14.8357 34.4939 15.0966 14.6791 14.1057 13.7736 16.2116 14.4955 13.736
threshold=-0.022636031134582447 -1.1788571614070722 -0.71172966491770728 -0.8658855044914201 0.22243406981635641 1.1218851043730409 -0.8658855044914201 -0.34717392886338294 1.813751140024735 -0.69809422442460967 0.22211763093679102 2.5436874288227123 2.553944901256942 -0.03574408015504394 3.2773206648228084 2.9280564763026686 3.2303547060529594 -1.2142820452710186 1.0000000180025095e-35 -1.6259751399864786 0.99794035657541191 -0.39148733984721773 -0.34188146938538583 1.3392587159886378 -0.29675862280713677 -0.61926761603462699 -0.52680556715154658 0.87471955879767449 0.87670058434379161 -0.14245033187637102 1.0000000180025095e-35 0.87313894565578165 -0.71172966491770728 0.027140028079000806 0.64340445679203884 1.2665069950883401 0.51407360411778102 -0.34188146938538583 -0.41082696704812033 0.86354296911143413 -0.65910182984779719 0.85537217686763389 -0.064495322736144778 -0.41082696704812033 -0.53687184812439781 -1.086742722081061 0.92657824157030955 -0.29241188467759888 -0.52680556715154658 -0.34717392886338294 -0.10523626938477854 1.577954877993909 1.4339393779579173 -0.25933654353710883 0.76101482974700274 0.87471955879767449 0.79450034088159482 -0.18479927529308218 2.8078773568111779 1.577954877993909 -0.21512929447880408 2.5436874288227123 -0.33846681385937233 -0.69809422442460967 -0.52680556715154658 0.87313894565578165 0.86354296911143413 0.87004619877228084 0.85537217686763389 0.85024168966077773 0.3136766664013737 0.027140028079000806 2.5436874288227123 -0.20221252069351883 -1.1686283826898196 -0.57237558877083639
decision_type=2 2 2 2 2 2 2 2 2 2 2 2 2 2 2 2 2 2 2 2 2 2 2 2 2 2 2 2 2 2 2 2 2 2 2 2 2 2 2 2 2 2 2 2 2 2 2 2 2 2 2 2 2 2 2 2 2 2 2 2 2 2 2 2 2 2 2 2 2 2 2 2 2 2 2 2
left_child=8 3 10 18 5 6 15 19 -1 -10 11 30 14 16 17 23 24 34 32 -8 -13 26 27 -4 36 -21 -17 -23 42 -15 71 39 -2 -22 -9 53 37 38 -14 40 41 -29 -28 46 -45 47 59 -34 -26 -35 66 -52 -18 -36 -55 56 -56 58 -58 60 61 -38 63 -63 -62 -65 -51 68 69 -24 75 -3 73 74 -27 -39
right_child=1 2 4 -5 -6 -7 7 12 9 -11 -12 20 13 29 -16 21 52 -19 -20 25 33 22 67 -25 48 72 28 31 -30 -31 -32 -33 45 49 35 -37 43 70 -40 -41 -42 -43 -44 44 -46 -47 -48 -49 -50 50 51 -53 -54 54 55 -57 57 -59 -60 -61 64 62 -64 65 -66 -67 -68 -69 -70 -71 -72 -73 -74 -75 -76 -77
leaf_value=-0.34001950019688637 0.20465167889560335 0.31399810383409188 0.0015065804390544295 0.33884996070803886 0.32230699404903318 -0.34029308086580817 0.28209856654847831 -0.23278737116600434 -0.33993268802436055 0.3436078026570713 0.3374855746044062 0.25281245668946589 0.11650113809686445 0.12219966703409942 -0.3671312203759482 0.26277145052739281 0.34488818852264619 0.32060394130674152 -0.25761434722930648 0.295308159307341 -0.056962520015273771 -0.14490920010714806 0.083450800765653602 -0.33550391125480034 0.29848521514361703 0.27262518588607521 0.069018071837022882 -0.33771604278115358 0.28647666716586584 0.26352074015141236 0.038645839906970202 -0.13910895765496645 -0.060914358519160508 0.24376561080150516 0.17478344204339932 0.23952938141955968 -0.21990297139264794 0.15619842060935582 0.22914669450447384 0.16832516886814219 0.10342653464568903 -0.017189945572095505 -0.16473096922925032 -0.03921010515107972 0.12169632329659624 0.078002447500868474 -0.092618925834556304 0.13097233442302833 0.099807578175436076 0.13541585220939445 0.2081688496842235 -0.0075792557262449323 0.1608044697669018 0.11663103762412645 -0.12914511354108035 -0.11423459584961818 -0.15756062265604723 0.17794556364494368 0.1041719210327632 0.024442049651557687 0.16448992325195411 0.1078880964239267 0.23627042685160271 -0.15116639937509252 0.062202928039057817 0.12493022845413684 -0.091613658072760826 0.24338056613557765 -0.10803012900196594 0.30823365264011549 0.10998913908171989 0.22651547917870224 0.0046000815147888181 0.28159877627470342 0.058850983971407443 0.0033322361969517701
leaf_weight=34255.101962905377 132.17063793540001 1650.7856202162802 53.324333928525448 27197.074421834201 610.71003895998001 55.000417664647102 421.3107083439827 39.611070513725281 65.873325061053038 45.205858767032623 1683.3082879260182 416.82641505822539 726.70392175391316 219.09740495681763 69.32965499907732 110.69360608607531 96.314379960298538 57.377222083508968 50.304258659482002 103.8426728695631 75.52646753937006 221.15665608644485 92.766448348760605 87.163439191877842 96.442136138677597 40.275024861097336 129.08383084833622 42.061711028218269 47.551451183855534 561.12644344568253 45.333875983953476 113.11152140796185 238.58791399002075 133.45000997558236 54.691285222768784 47.151721850037575 55.477892816066742 67.183230057358742 234.44608302041888 105.48040808737278 136.03264867514372 63.947939321398735 58.772562071681023 496.88635636121035 109.26657843589783 707.00140539556742 81.182791486382484 64.858488038182259 93.617520179599524 54.62485109269619 204.15310914814472 66.274248115718365 126.11706847697496 94.490207254886627 71.236054234206676 225.52359310910106 56.675558179616928 101.37269419431686 84.433551549911499 694.63794719800353 437.18516854196787 157.53045532852411 60.985131993889809 90.811913102865219 392.97802879288793 38.31791253387928 72.999732345342636 61.382890328764915 79.290000267326832 47.555392608046532 217.22584568709135 219.75569220259786 120.90305891633034 62.282077297568321 194.84686649590731 779.37762060388923
leaf_count=781438 315 4996 281 89655 1795 1234 979 133 1509 125 5262 1128 1555 545 1223 180 270 124 859 238 250 552 179 1075 250 74 253 125 62 1388 155 274 519 374 100 74 154 114 497 166 255 136 151 1097 198 1354 199 107 208 119 503 179 270 172 187 557 153 177 165 1438 878 276 84 221 763 65 200 84 181 56 410 631 259 120 440 1644
internal_value=0 0.269159 0.155574 0.326838 0.0948126 0.0796827 0.0822133 0.0963927 -0.33912 -0.0617524 0.284289 0.253828 0.0816758 0.0945553 -0.00162173 0.00709594 0.0745922 0.0288152 0.0529782 0.201448 0.172205 0.0301386 -0.00258515 -0.207586 0.0669515 0.136373 0.12117 -0.0458531 0.0545854 0.223836 0.297448 0.00170502 0.0666522 0.116854 0.00721775 0.0201421 0.0614764 0.0866041 0.143978 0.0475371 -0.00510155 -0.144366 -0.00411242 0.0420206 -0.0102047 0.0486013 0.0577772 -0.0199006 0.200623 0.141553 0.107286 0.155295 0.240514 0.00511579 -0.00952659 -0.0316329 0.0277472 0.0738389 -0.000951257 0.0641102 0.0864529 0.0254618 0.0646176 0.0280995 0.11607 -0.0692376 0.00555769 0.102398 0.0629925 0.15963 0.0347659 0.30372 0.0969184 0.134448 0.0954693 0.0154637
internal_weight=0 42806.4 14416.4 28390 9793.35 9182.64 9127.64 7678.26 34366.2 111.079 4623.04 2939.73 6734.8 5832.91 901.893 1449.37 5052.69 832.563 1192.92 943.46 1023.85 1308.89 962.786 140.488 4830.26 522.15 346.101 681.791 235.408 780.224 1915.88 460.634 1142.62 607.028 775.186 735.575 4640.2 2024.94 961.15 347.523 242.042 106.01 187.856 2615.26 606.153 1010.45 2009.11 303.446 190.06 531.502 398.052 270.427 222.431 688.423 633.732 539.241 313.718 242.482 141.109 1927.92 1233.29 403.123 347.645 286.66 830.163 129.13 127.625 280.995 219.612 140.322 1063.79 1870.54 418.307 297.404 235.122 846.561
internal_count=914416 131344 38535 92809 24738 22943 21709 17699 783072 1634 13797 8535 15589 12524 3065 4010 10591 1842 3154 2110 2753 2654 2008 1356 10051 1131 646 1508 466 1933 5782 956 2295 1625 1718 1585 9593 4220 2052 682 516 261 404 5373 1295 1980 4078 626 458 1375 1001 682 540 1511 1411 1239 682 495 318 3879 2441 800 646 562 1641 286 319 500 416 235 2168 5627 893 634 514 1758
is_linear=0
shrinkage=0.324382


Tree=8
num_leaves=77
num_cat=0
split_feature=0 19 16 2 19 22 22 17 12 28 28 23 22 9 12 6 12 183 28 20 16 168 22 29 4 5 168 31 28 5 5 17 28 28 29 9 5 29 3 29 28 29 22 28 5 16 5 6 5 23 23 18 26 23 27 9 5 5 16 5 5 5 22 28 26 28 25 26 7 22 17 16 27 29 18 28
split_gain=46156.5 2618.43 663.345 366.485 310.919 271.686 209.843 180.691 174.229 129.077 141.253 93.7785 79.4619 105.055 58.0434 70.6947 57.9933 144.687 53.1791 47.9524 47.6936 39.1731 58.9879 30.6792 42.9684 29.9665 57.0423 29.1249 28.3639 27.7303 26.6099 25.5712 25.3445 42.2591 30.4397 23.8554 21.1442 20.805 68.0353 82.0288 38.3246 77.7323 24.1634 20.3948 19.8683 38.2237 27.5172 40.0431 31.8407 22.3808 30.4875 22.2807 22.1107 22.2946 20.4846 18.8674 18.6098 32.2891 31.5459 24.9783 22.5998 39.556 39.8566 21.6105 18.7919 18.4708 16.8354 21.6876 15.983 16.4304 15.4935 15.3697 15.1304 14.9685 14.8621 14.5383
threshold=-0.022636031134582447 -0.17620548961132643 -0.71172966491770728 -1.1924586164418274 -0.33846681385937233 0.22243406981635641 -0.51997498610718229 -0.4830400313386089 1.813751140024735 -0.89563738026450379 0.13312641622079577 -0.25637895884514678 0.22211763093679102 2.5436874288227123 1.813751140024735 1.0000000180025095e-35 1.0000000180025095e-35 1.0000000180025095e-35 -0.8658855044914201 0.15514641242662952 -0.52680556715154658 1.0000000180025095e-35 -0.057723480326624693 -0.03574408015504394 -0.087190408537736533 1.0000000180025095e-35 1.0000000180025095e-35 1.0376981711838689 -0.8658855044914201 0.85024168966077773 1.0000000180025095e-35 0.13125329418501738 -0.8658855044914201 -0.72487033090064268 -0.20005215875254898 2.5436874288227123 0.85358474720683597 0.22162143291498723 1.0000000180025095e-35 -0.03574408015504394 -0.77979995637047173 -0.20005215875254898 -0.088721068287191784 -0.14245033187637102 0.86482228575475173 0.12042877503001582 0.86812303727333562 -0.03276200183174529 0.8691577721953162 -1.2142820452710186 -1.4358790872447427 -0.41464186640099837 0.85024113595599704 -0.81478844387606508 0.90259195410220416 2.5436874288227123 0.85537217686763389 0.85710407986737147 -0.34188146938538583 0.85167392496590411 0.86164404544072937 0.85978258023185117 -0.057723480326624693 -0.62034410684318542 0.85529366818770181 -0.49858054267541346 0.43317047374120315 0.82632293667729517 0.027140028079000806 -0.088721068287191784 -0.60589869644333416 0.49027697056233738 0.90259195410220416 0.27875847497941392 -0.65910182984779719 2.953721413461095
decision_type=2 2 2 2 2 2 2 2 2 2 2 2 2 2 2 2 2 2 2 2 2 2 2 2 2 2 2 2 2 2 2 2 2 2 2 2 2 2 2 2 2 2 2 2 2 2 2 2 2 2 2 2 2 2 2 2 2 2 2 2 2 2 2 2 2 2 2 2 2 2 2 2 2 2 2 2
left_child=14 2 12 4 7 6 -5 9 11 -4 -11 -3 13 16 -1 -16 17 -2 -6 20 -8 22 -15 -24 -25 26 -21 35 29 55 -22 -9 -23 -34 -35 -28 -32 38 39 40 41 -30 -40 -41 45 56 47 66 -48 50 51 54 -51 -54 -50 -27 58 -58 59 64 61 63 -63 -59 -42 -52 67 -46 -18 -70 -65 -33 -44 -26 -62 -73
right_child=1 8 3 5 18 -7 19 31 -10 10 -12 -13 -14 21 15 -17 68 -19 -20 25 30 32 23 24 73 28 27 -29 37 -31 36 71 33 34 -36 -37 -38 -39 42 43 44 -43 72 -45 46 -47 48 -49 49 52 65 -53 53 -55 -56 -57 57 60 -60 -61 74 62 -64 70 -66 -67 -68 -69 69 -71 -72 75 -74 -75 -76 -77
leaf_value=-0.33551311129418043 -0.43095043351832996 0.15955274262491637 0.058588623364531793 -0.31354437076613206 0.1185020077772246 0.31404042590636899 0.30746217160270772 -0.053187501620721049 0.33502298213134546 0.31828845649242349 0.10019242269597486 -0.34944704144008848 0.33136692041651616 0.33366692597465997 0.27245361271593799 -0.33545137448737034 0.29922858954885673 0.34265572810507056 0.32931978196825268 0.32309748526332249 0.28433287872328122 -0.14734057312874427 -0.052136253343031957 0.31229134112656343 -0.1395637328065655 0.0018553940566136884 0.1174292347968876 0.17560485285780136 0.23854681417921547 0.011005542432511641 -0.18004878028723018 0.21726449984043447 0.27004065304767111 -0.10886274085136285 0.12739083087716407 -0.0039390167657681 0.079754107886031281 -0.0073090963350530887 0.29031415265459942 0.077161080412389227 0.1024194769012572 -0.0072402910747964002 0.17073273097346273 0.21886316242573772 0.035927037364971194 -0.26443523521332429 0.18000892522524997 -0.3863148881523944 -0.018709761468448036 0.010453466334218979 -0.07375531755640706 0.19894670357920041 -0.29340548986481751 -0.040786855603499483 -0.21111633041938488 -0.28061189251839042 0.21950595192796421 0.27591722010851921 0.099957869133791011 -0.20301832912874945 0.040864154341372132 -0.38809500660490992 0.045149209107719246 0.092672555667705325 -0.095244830999551514 0.16248267233902314 0.11468466077606959 -0.20316952584030573 0.26685245503435195 0.056655510720151882 -0.1006789724064818 -0.0027550040935228125 -0.039829812619051247 0.12043850230355599 0.21842789302550902 0.15990373184535792
leaf_weight=25040.725323889405 41.457269117236137 231.68813201785088 647.20886630564928 162.55023733153939 139.4517784640193 438.21974885463715 156.81436491012573 461.00272503122687 17695.259659428149 821.30485240742564 504.3683936484158 45.580429777503014 1235.4214354828 205.62967941910028 36.702535957098007 44.57770474627614 1629.6338216923177 65.840015515685081 1295.9756190031767 110.27068254351616 53.140161782503128 52.307820238173008 88.635507699102163 112.29182434827089 38.44061753898859 41.628730848431587 281.52063979953527 235.14491640031338 250.27837727963924 838.03176626190543 41.495434269309044 55.782928451895714 101.4928164742887 106.08597353100777 125.00154999643564 431.75548953935504 160.28880281746387 520.30778797715902 159.72761248424649 159.7327585183084 97.364154741168022 294.95524119213223 151.5699582695961 322.97787860408425 68.787592150270939 41.930712163448334 99.755289785563946 46.213597685098648 258.68394442647696 123.70265713334084 43.211085736751556 38.384331233799458 78.729613497853279 68.958875700831413 75.134919546544552 61.852796096354723 148.96069686114788 42.169794842600822 210.51709762215614 93.462175726890564 94.822663605213165 48.349624216556549 41.539629183709621 113.71276899427176 105.38958667218685 179.46112439408898 48.530421309173107 95.117164641618729 116.32228618487716 58.965288557112217 70.734521478414536 260.45350632071495 47.057150512933731 59.150673978030682 104.00244680792093 74.317168265581131
leaf_count=781438 205 439 1270 3136 280 1737 502 1210 79525 3655 1257 1277 5261 687 237 1397 6574 218 5537 216 103 179 237 367 112 84 677 496 731 1846 117 100 332 306 372 1031 338 1173 502 447 177 623 298 1018 136 117 167 145 556 256 96 63 222 160 199 202 224 58 378 251 190 150 83 220 249 311 87 252 390 223 168 560 120 161 161 137
internal_value=0 0.246548 0.149555 0.110192 0.185909 0.0663501 0.0506618 0.123434 0.331025 0.177337 0.235311 0.0758778 0.262835 0.232611 -0.334625 -0.0609486 0.275444 0.0437516 0.308839 0.0594245 0.166699 0.140481 0.199976 0.107885 0.175464 0.0524626 0.102276 0.0766017 0.0424854 -0.00855686 0.08011 -0.00144898 0.0625516 0.0955632 0.0189333 0.0439634 0.0263276 0.0535476 0.0618281 0.0479146 0.0278385 0.105583 0.196383 0.171973 0.010449 0.0398756 -0.0186962 -0.112666 0.00646387 -0.0135208 0.0216963 -0.0351036 -0.0907148 -0.175453 -0.062016 -0.16698 0.050772 0.0864873 0.00395174 -0.0642787 0.0480372 -0.00580342 -0.187884 0.0664202 -0.000324668 0.116639 -0.0531356 -0.102825 0.289217 0.196144 0.0185233 0.0596223 0.120848 0.0180252 0.133745 0.0333543
internal_weight=0 33626 15653.5 11616.8 4259.87 7356.95 6918.73 2824.44 17972.5 1972.88 1325.67 277.269 4036.68 2801.26 25122 81.2802 1912.22 107.297 1435.43 6756.18 411.739 889.036 504.148 298.519 209.883 6344.44 1058.69 948.421 5285.75 941.513 254.924 851.556 384.888 332.58 231.088 713.276 201.784 4344.23 3823.93 3465.57 2982.86 545.234 358.355 482.711 2437.63 1212.96 1224.67 258.649 966.022 866.267 594.875 372.203 271.391 147.688 333.819 103.482 1171.03 664.292 506.733 296.216 515.331 316.506 89.8893 226.617 202.754 222.672 212.435 163.905 1804.92 175.288 184.447 390.554 198.627 97.5913 198.825 334.771
internal_count=914416 131344 50103 34479 14006 20473 18736 8189 81241 6182 4912 1716 15624 10363 783072 1634 7610 423 5817 15600 1060 2753 1564 877 640 14540 2420 2204 12120 2132 558 2007 1189 1010 678 1708 455 9988 8815 7895 6430 1354 920 1465 5076 2426 2650 620 2030 1863 1225 818 638 382 755 286 2309 1254 1055 677 1030 679 233 446 426 407 475 388 7187 613 388 797 418 273 351 697
is_linear=0
shrinkage=0.324382


Tree=9
num_leaves=77
num_cat=0
split_feature=0 32 28 16 22 22 8 168 22 112 32 16 8 22 16 0 29 23 23 24 29 173 28 23 7 26 168 22 22 18 27 153 22 29 32 28 28 28 28 16 28 16 21 16 23 23 28 21 20 27 26 21 16 20 28 21 168 22 16 26 26 27 28 23 26 16 16 21 28 22 29 23 24 26 27 22
split_gain=31753.6 2642.86 905.238 686.326 195.362 91.801 94.7864 39.6019 50.438 38.7217 37.6575 31.3231 30.5326 66.9215 31.6353 25.8486 54.0994 23.26 25.0641 22.7246 22.4316 27.1916 21.1197 29.3155 26.0212 20.4972 19.8898 61.3992 29.9569 25.8848 19.5763 19.5258 24.8976 36.3978 19.9767 18.9934 26.3857 32.8605 25.8198 23.1389 20.6914 32.8563 32.6082 17.2356 16.5483 14.995 14.8108 28.6349 14.6838 14.6665 15.2018 14.1508 14.1393 13.8777 13.6316 18.2955 13.4614 15.5544 27.0002 16.9398 18.9117 13.0057 12.8945 47.3691 12.5689 11.5209 16.4251 11.4733 10.8999 10.3028 10.4211 23.5284 14.0407 16.6932 12.6461 12.5128
threshold=-0.022636031134582447 -1.1788571614070722 -0.8658855044914201 -0.71172966491770728 0.22243406981635641 0.22211763093679102 2.8078773568111779 1.0000000180025095e-35 -0.057723480326624693 1.0000000180025095e-35 -1.4161083539343235 2.8018281926393471 2.8078773568111779 -0.51997498610718229 -0.61926761603462699 2.553944901256942 -0.03574408015504394 -1.3593736578667148 -0.42640625509555191 -0.35049593507860904 -0.03574408015504394 1.0000000180025095e-35 -1.086742722081061 -1.6259751399864786 -0.034667395835843891 0.88167467556558754 1.0000000180025095e-35 -0.088721068287191784 -0.17645155299113777 -0.53687184812439781 0.87412732592273812 1.0000000180025095e-35 -0.088721068287191784 -0.03574408015504394 -0.45945041754046795 1.577954877993909 0.13312641622079577 -0.25933654353710883 -0.36369046065178495 -0.52680556715154658 -0.67175714983198431 1.0000000180025095e-35 -0.37337326632143281 0.39781492167925697 -1.0747782215733348 -1.6259751399864786 -0.8658855044914201 -0.34717392886338294 1.101389964543021 0.90259195410220416 0.8890518953495854 -0.13768673244913487 -0.34188146938538583 -0.44772096926650745 0.6894004046851222 0.25894172548847672 1.0000000180025095e-35 -0.021402676978376094 -0.24941942050230545 0.88542312522329258 0.81155201500426821 0.8559308460274011 -0.25933654353710883 -1.378403245263794 0.83284561307647997 0.21289082391309624 -0.24941942050230545 -0.13768673244913487 -1.086742722081061 -0.088721068287191784 -0.03574408015504394 -1.378403245263794 -0.46862184134210638 0.90836582140531086 0.87826375647304522 -0.019793563121901697
decision_type=2 2 2 2 2 2 2 2 2 2 2 2 2 2 2 2 2 2 2 2 2 2 2 2 2 2 2 2 2 2 2 2 2 2 2 2 2 2 2 2 2 2 2 2 2 2 2 2 2 2 2 2 2 2 2 2 2 2 2 2 2 2 2 2 2 2 2 2 2 2 2 2 2 2 2 2
left_child=10 2 43 5 9 6 31 8 -8 11 -1 12 14 -14 17 30 22 19 -19 46 51 -22 -17 24 -24 -9 27 -15 35 69 52 32 -3 -34 -33 36 37 38 40 -37 42 49 -28 65 -41 -23 -5 -48 -44 50 64 -10 -16 -45 -38 -56 -25 -58 59 60 -59 -61 -35 -64 -42 66 -2 -49 -68 -30 72 -72 74 75 -71 -74
right_child=1 3 -4 4 -6 -7 7 25 20 -11 -12 -13 13 26 15 16 -18 18 -20 -21 21 45 23 56 -26 -27 28 -29 29 -31 -32 34 33 62 -36 39 54 -39 -40 44 41 -43 48 53 -46 -47 47 67 -50 -51 -52 -53 -54 -55 55 -57 57 58 -60 61 -62 -63 63 -65 -66 -67 68 -69 -70 70 71 -73 73 -75 -76 -77
leaf_value=-0.098074453716301968 0.050848456164911328 0.30695681004129682 0.32999630924172052 -0.014104246450485618 0.29612915404697998 0.32617617059148057 0.32797929176032875 0.090295658362812378 -0.18574881417809994 0.33727099856848342 -0.33233296143058044 -0.19732004143775508 -0.33874554543143331 0.30112234787516701 0.079412442721025434 -0.15753897544648132 0.24595211932692485 0.25742521359778398 0.080149828569566831 -0.060390846005223223 0.33136080556017922 -0.065057150944252629 0.29017623314128871 0.1676492865034391 0.083309356749104946 -0.075122885658011326 -0.027188191105246982 0.036768864377445101 0.18680913288173023 0.16667936715862519 -0.16540418469930449 0.023079084426658708 -0.036128621503082735 0.32952821541597493 0.28839271394536276 -0.15507628557890071 0.22233655803774124 -0.15230008320831345 0.13432472205659859 -0.09562334347985306 -0.15845212510524434 0.16804474728502636 0.051535111764579776 -0.018892328998406111 0.060391333563510452 0.17055395138843737 0.32176772431703066 -0.042242410581528028 0.18861206092416496 -0.33836921875394932 -0.27062536866425979 0.072995459284775757 -0.13422188612164082 -0.26619499372066502 -0.14144640359788815 0.12526575606694323 0.046455673412722498 -0.055836431203531406 0.14190639314247336 0.11910855677721156 -0.37659506211817678 -0.14921342663446147 -0.11619090441995193 0.30677029955129981 0.084372195842324776 0.1502059818141642 -0.12326166786357937 0.15455257004078859 0.012557370243130299 0.17671369668226888 0.022756934898247313 0.21741377620804508 0.043437005438612612 -0.2095940733749847 -0.054126252619531044 -0.11324491137836952
leaf_weight=72.493185691535473 622.48490958288312 721.56558455899358 14561.035221174359 65.356135960668325 342.00286653451622 905.20099783875048 151.54200285673141 213.47904646396637 38.682656407356262 47.678993627429008 18237.136890977621 56.165326252579689 52.258641676977277 112.13916288875043 119.23018453083932 50.419120013713837 157.4284623041749 212.32671842724085 138.76780972257257 101.01884040981531 63.475614778697491 50.700576193630695 95.943650189787149 87.63472805172205 192.0647383145988 124.95679166540504 687.27551171183586 526.53991295397282 47.454770982265472 216.41771726682782 92.810662463307381 69.694503862410784 57.448177406564355 115.7514116410166 52.248889517039061 166.78393959254026 83.988613463938236 135.6405933573842 167.83259185403585 121.72098627686501 43.14953001588583 40.387504361569881 322.8406394906342 68.66580749489367 173.5167645290494 64.686477169394493 75.457700558006763 54.912521176040173 110.32985002920032 36.93348440527916 40.98077530413866 52.326946344226599 44.865387735888362 36.604958713054657 36.2431850284338 106.84082869440317 2147.5420153215528 36.954117402434349 58.534399248659611 40.008450910449028 40.58121157810092 36.212077405303717 39.565177835524082 94.190490169450641 46.711148343980312 81.306689755991101 111.12625650316477 72.1052061393857 141.1462549045682 70.964654516428709 254.48690563812852 87.907903928309679 171.13952030986547 50.854758776724339 38.530127860605717 78.112031564116478
leaf_count=1845 1615 3713 89655 147 1795 5262 688 685 107 204 781227 978 1718 406 289 401 525 763 471 261 272 135 349 269 460 468 1657 1171 80 519 336 346 273 563 240 405 139 329 317 272 104 61 693 225 331 226 272 143 348 108 111 138 570 184 92 197 4629 84 117 73 129 92 190 491 83 230 611 212 289 135 851 287 335 134 95 191
internal_value=0 0.222679 0.308915 0.102495 0.0560088 0.241086 0.200766 0.111856 0.17822 0.0458099 -0.331405 0.0440737 0.0457795 0.0259454 0.0661592 0.0523379 0.0609508 0.127596 0.187358 0.0707112 0.0941253 0.160835 0.0504966 0.054331 0.152222 0.0292201 0.030739 0.083184 0.0207015 0.0671594 -0.0463392 0.259488 0.274039 0.196659 0.136758 0.000369107 0.0149968 0.0005825 0.0144401 -0.0584923 -0.000703974 -0.0946218 0.0167446 0.0196909 -0.00393059 0.0670274 0.120159 0.163498 0.086449 -0.157852 -0.106896 -0.036981 0.0210027 -0.104885 0.1186 0.0577076 0.0428115 0.0381755 -0.0455868 -0.116965 -0.223718 -0.00837018 0.250258 0.181658 -0.0322278 0.0334078 0.0225516 0.0694738 -0.047271 0.0402186 0.030968 0.072734 -0.00394511 -0.0402219 0.0954834 -0.00566497
internal_weight=0 26831.9 15622.4 11209.5 8394 2815.52 1910.31 759.85 421.414 8052 18309.6 8004.32 7948.16 4027.98 3920.17 3200.23 2943.32 719.945 351.095 368.85 269.872 178.863 2785.89 2735.48 288.008 338.436 3975.72 638.679 3337.04 1015.87 256.906 1150.46 1028.52 306.955 121.943 2321.18 1859.15 1632.08 1496.44 462.022 1328.61 208.162 1120.45 1061.33 295.238 115.387 267.832 202.475 433.17 167.775 130.841 91.0096 164.096 105.271 227.073 143.084 2447.47 2359.83 212.29 153.756 77.5353 76.2205 249.507 133.756 89.8607 956.064 874.757 127.018 252.273 799.451 751.996 342.395 409.601 300.106 109.495 249.252
internal_count=914416 131344 92809 38535 24738 13797 8535 2719 1566 22943 783072 22739 21761 11169 10592 8323 7128 2269 1234 1035 878 633 6603 6202 809 1153 9451 1577 7874 2627 1195 5816 5230 1517 586 5247 4239 3811 3482 1008 3165 467 2698 3154 603 361 774 627 1041 406 298 245 859 409 428 289 5393 5124 495 378 213 165 1244 681 187 2745 2515 355 900 2108 2028 1138 890 660 230 526
is_linear=0
shrinkage=0.324382


Tree=10
num_leaves=77
num_cat=0
split_feature=0 19 29 155 12 168 4 9 112 171 29 5 21 32 21 32 187 12 4 25 25 29 21 2 26 5 29 21 30 23 29 5 32 25 32 21 4 23 32 5 26 5 5 27 5 25 21 25 26 5 5 5 23 5 5 26 9 30 29 27 5 20 5 5 21 18 18 5 32 27 18 26 5 26 5 21
split_gain=21740.3 2589.53 287.911 234.209 160.246 150.727 227.837 122.453 93.4016 74.8834 89.3855 75.3481 59.1044 152.225 124.226 126.403 54.501 53.3695 48.134 44.2594 43.0446 40.2188 35.5259 28.8855 30.2862 23.8904 21.4979 25.4428 20.5721 20.0602 18.7632 46.5151 21.7694 66.0965 18.7201 17.998 17.3399 16.6773 43.9172 16.1642 15.682 14.644 32.1697 31.0985 20.7307 22.0068 17.6556 21.0397 16.7678 15.4074 33.0271 15.1137 19.7999 14.2595 45.1676 27.5662 30.0972 13.9148 13.5264 12.7798 12.3954 12.3397 25.0891 40.1119 31.6226 21.4064 16.2869 18.0784 16.0498 12.3116 21.6692 13.4946 11.8633 11.802 11.7427 20.1851
threshold=-0.022636031134582447 -0.17620548961132643 0.39895606987401455 1.0000000180025095e-35 1.813751140024735 1.0000000180025095e-35 -0.087190408537736533 2.5436874288227123 1.0000000180025095e-35 1.0000000180025095e-35 -0.03574408015504394 1.0000000180025095e-35 -0.34717392886338294 -1.4235475207258894 -0.97897814002055672 -0.54457957549144831 1.0000000180025095e-35 1.813751140024735 -0.083608804598142586 -0.16019409766682127 -0.31609354437789111 -0.03574408015504394 1.0000000180025095e-35 1.0000000180025095e-35 0.70765959037921811 1.0000000180025095e-35 -0.03574408015504394 0.27453896641656167 1.5761320897129723 -1.3593736578667148 0.22162143291498723 0.85823047784888018 1.2700994731859394 1.1410803260835178 -1.0168850906257025 -0.13768673244913487 -0.085782974731561781 -1.6259751399864786 -0.5682924115022282 0.88114536135533184 0.82632293667729517 0.85978258023185117 0.86164404544072937 0.68127553758040704 0.85537217686763389 0.69409280607872625 2.2000205893810079 1.0000000180025095e-35 0.92412581669045557 0.87670058434379161 0.87120917384004348 0.85167392496590411 -1.2142820452710186 0.85710407986737147 0.85823047784888018 0.88542312522329258 2.5436874288227123 1.7187836665809895 -0.19063905472852868 0.90843956414691884 0.85823047784888018 0.51407360411778102 0.8691577721953162 0.88114536135533184 0.03410461839130121 -0.41464186640099837 0.074278060492599454 0.86265586459782806 -0.45945041754046795 0.83361234191666334 -0.65910182984779719 0.86473286978764807 0.87997709803413493 0.8890518953495854 0.86482228575475173 0.25894172548847672
decision_type=2 2 2 2 2 2 2 2 2 2 2 2 2 2 2 2 2 2 2 2 2 2 2 2 2 2 2 2 2 2 2 2 2 2 2 2 2 2 2 2 2 2 2 2 2 2 2 2 2 2 2 2 2 2 2 2 2 2 2 2 2 2 2 2 2 2 2 2 2 2 2 2 2 2 2 2
left_child=17 2 3 5 19 6 9 8 12 30 11 -11 13 72 16 23 -15 -1 29 -3 -9 25 -23 34 -25 -14 39 -28 -21 53 32 -32 37 -34 -16 -13 -31 38 -2 41 -26 44 -43 73 45 51 47 48 58 50 -49 57 -53 -8 -55 -56 -57 69 74 -30 -46 65 68 64 -64 -27 67 -67 -63 70 71 -22 -7 -44 75 -45
right_child=1 4 -4 -5 -6 7 18 20 -10 10 -12 35 21 14 15 -17 -18 -19 -20 28 26 22 -24 24 40 61 27 -29 59 36 31 -33 33 -35 -36 -37 -38 -39 -40 -41 -42 42 43 46 60 -47 -48 49 -50 -51 -52 52 -54 54 55 56 -58 -59 -60 -61 -62 62 63 -65 -66 66 -68 -69 -70 -71 -72 -73 -74 -75 -76 -77
leaf_value=-0.33009521408729703 -0.107506807446765 -0.26436641050620691 0.31018485426894116 0.33021060679931835 0.32907812638451917 0.0080435983560162138 0.053689897356683211 -0.27517349661487156 0.33158380263260984 0.30875092593688391 0.3325968228400738 -0.20201366766009904 0.11094542184705013 -0.016153047385392957 -0.0050511338822066603 0.30540411629933822 0.29908456177812653 -0.028362567136491997 0.35741812439889115 0.27092682540141971 0.062394477330199434 -0.01422085853684267 0.26132447363048283 -0.26788903438174688 0.1050147723072935 0.068812466622631505 0.048329626658806482 0.24728611191679672 -0.024167060773630473 -0.075433283609866161 -0.096108836335245071 0.34164008702227411 -0.097399870575458236 0.33109631367467435 0.19102854971386987 0.0071690656073371854 0.19612636526644575 0.31197544209049743 0.29983155501589742 0.10239558579196673 -0.036103631382912525 -0.21747870275086956 -0.28681475788373728 0.14456495800443167 0.11985149450383507 -0.21413767697884686 0.13695545907811194 -0.055127159582846551 -0.1462449696879608 0.050138705746275228 -0.39927602209239893 -0.11645154751391552 0.11670777632835359 -0.41260522766303726 -0.11778958721775892 -0.20333698400224062 0.13041998564152782 0.10886028994002042 0.16147297002801567 0.19762843287790205 0.0090747164218102049 -0.18100984593908107 -0.3744216168252274 0.17525966247055955 -0.063857005982386444 -0.21659497100310118 0.024482857023484118 0.001750947062767687 0.044584694752688905 -0.028408962323656837 0.16055051662855535 -0.19299631674694559 0.15147051682406146 -0.054387738090827087 -0.0042092566201035516 -0.12783513092883503
leaf_weight=13268.238110814244 37.968721304088831 38.173620413988829 636.72528594173491 399.52338199317455 9410.3928423691541 946.2710683979094 113.10730227082968 53.237049486488104 164.56184436380863 55.903245896100998 109.9866404607892 112.54817776754498 341.02746047079563 62.894187841564417 80.529487412422895 224.32472552545369 699.95579786412418 61.970554433763027 37.025464780628681 62.472974143922329 48.848441202193499 71.62374989874661 157.50558530539274 47.707685295492411 117.64615022391081 768.25833631306887 362.86014449223876 83.127772644162178 88.968803144991398 37.579066883772612 49.704858588054776 52.54255835711956 62.241846155375242 96.772499764338136 140.83392420224845 70.321721980348229 72.427127070724964 779.83102313056588 104.51299323514104 186.05743391439319 280.23884948156774 80.491522565484047 53.945241291075945 138.58253468945622 317.6988299228251 47.713406421244144 99.066262867301702 94.541300296783447 66.779872458428144 48.905049093067646 42.547077067196369 169.28705755621195 49.538832895457745 38.15981125459075 220.74243593029678 36.422380153089762 129.56271644681692 190.92362066358328 67.839688558131456 39.459942784160376 159.72084248438478 36.601143296808004 62.735393591225147 37.258446477353573 76.649970874190331 76.854161947965622 306.58375333249569 82.985139202326536 355.40337153151631 362.39343105256557 119.63317468389869 39.273207370191813 64.839849447831511 40.057431969791651 832.76162269152701 36.075215119868517
leaf_count=781438 185 1308 4753 3337 79525 2802 262 1810 1157 111 738 319 995 350 243 1120 5814 1634 116 95 107 239 822 296 269 2369 1265 381 233 140 244 236 196 644 479 195 260 5087 535 431 761 235 180 317 631 146 205 225 185 103 140 427 89 127 595 116 239 492 135 80 360 110 215 83 208 250 701 225 800 849 212 113 187 94 1954 87
internal_value=0 0.196781 0.0978027 0.0861571 0.322553 0.0774611 0.153212 0.0587881 0.0910973 0.222735 0.0906333 -0.0208229 0.0832431 0.116397 0.177007 0.0947657 0.273094 -0.328692 -0.00230371 0.0544889 0.0144532 0.0460142 0.175192 0.0239193 -0.0236616 0.0322113 0.0185774 0.0854132 0.118249 -0.0228575 0.261661 0.12884 0.27422 0.163373 0.119697 -0.121573 0.103359 0.293331 0.191283 0.00952458 0.00562209 0.00396248 -0.0176268 -0.00705134 0.0269369 0.000987558 0.00485259 -0.00500179 0.0114753 -0.106175 -0.161938 0.0114625 -0.0636678 -0.0486656 -0.0759132 -0.0426905 0.0571832 0.0330642 0.0212707 0.04398 0.0827911 0.0173219 -0.0222173 -0.123719 -0.203638 0.0355321 -0.0192848 -0.103234 0.0235211 0.00768263 0.0706383 -0.0514256 0.0172412 -0.18777 0.0118294 0.0883013
internal_weight=0 21888.3 12248.8 11612.1 9639.47 11212.6 2217.36 8995.2 5203.29 1532.33 348.76 238.773 5038.73 2665.24 1654.13 891.281 762.85 13330.2 685.026 229.075 3791.91 2373.49 229.129 666.956 445.593 2144.36 3738.67 445.988 190.902 648.001 1183.57 102.247 1081.33 159.014 221.363 182.87 110.006 922.313 142.482 3292.68 397.885 3106.62 1601.59 1521.1 1505.03 1027.61 1427.1 1328.03 1142.04 185.993 137.088 979.898 218.826 537.995 424.887 386.728 165.985 761.072 1075.26 128.429 477.42 1803.33 568.648 176.644 139.385 1234.68 466.423 159.839 392.005 570.148 207.755 88.1216 1011.11 94.0027 1007.42 174.658
internal_count=914416 131344 50103 45350 81241 42013 10345 31668 20495 8490 1363 625 19338 12321 9332 3168 6164 783072 1855 1716 11173 7017 1061 2048 1326 5956 9363 1646 408 1739 7127 480 6647 840 722 514 400 5807 720 7717 1030 7286 3860 3625 3426 2435 3351 3146 2678 468 365 2289 516 1339 1077 950 355 1773 2493 313 991 4961 1416 506 423 3545 1176 475 910 1281 432 220 2989 274 2358 404
is_linear=0
shrinkage=0.324382


Tree=11
num_leaves=77
num_cat=0
split_feature=0 19 22 21 28 12 112 12 168 22 5 12 21 4 21 21 12 27 18 28 21 22 22 24 6 5 29 28 20 0 24 5 5 5 10 5 5 5 5 147 153 26 21 5 25 5 25 28 5 22 22 5 5 23 25 28 26 28 5 28 28 5 22 21 17 20 21 5 5 18 25 18 4 5 29 4
split_gain=14857.7 2396.36 355.46 165.151 368.119 156.335 92.4528 76.9967 59.5194 116.06 62.0492 55.8393 47.6647 37.507 41.0458 74.2521 34.3528 25.0786 22.2536 22.1124 89.3923 57.6777 47.9842 21.4321 21.02 17.9982 16.0107 37.6002 17.2431 16.9779 16.8384 15.6589 20.3819 28.4355 22.4538 21.2123 38.1771 28.2448 19.7375 15.2459 19.5444 14.9211 14.635 14.0681 22.6808 20.561 22.2997 19.3241 26.216 26.8165 24.4697 24.0007 44.5371 23.1907 22.1926 16.7976 16.096 16.0679 57.9278 35.7111 15.2064 14.7989 19.4907 17.0792 14.6758 26.3529 16.8283 14.6454 14.1054 13.9341 13.7278 13.6992 14.3806 20.9823 19.2163 15.5817
threshold=-0.022636031134582447 -0.17620548961132643 0.22243406981635641 -0.97897814002055672 -0.8658855044914201 1.813751140024735 1.0000000180025095e-35 1.813751140024735 1.0000000180025095e-35 -0.057723480326624693 1.0000000180025095e-35 1.813751140024735 -0.21512929447880408 -0.083608804598142586 -0.032226275330978195 1.5785107168548207 3.2773206648228084 0.7950187879066869 0.31873802393939848 -0.8658855044914201 -0.34717392886338294 -0.20221252069351883 -0.17645155299113777 -0.14661124595519162 -0.036616155793680695 0.86354296911143413 -0.03574408015504394 0.068536481754997866 1.247602075684169 2.553944901256942 -0.29675862280713677 -1.172255243170186 0.85024168966077773 0.85978258023185117 2.5505884741897575 0.87558300011800683 0.87120917384004348 0.86354296911143413 -1.1686283826898196 1.0000000180025095e-35 1.0000000180025095e-35 0.83900709972564702 -0.40075049824084363 0.85823047784888018 0.73676283576239321 0.88114536135533184 1.0000000180025095e-35 1.577954877993909 0.85537217686763389 -0.021402676978376094 -0.007648349626465099 -1.172255243170186 1.0000000180025095e-35 -1.335573805416171 1.0000000180025095e-35 -0.64584494105762202 0.90545116098224321 -0.49858054267541346 0.8691577721953162 -0.033495433553151641 1.577954877993909 0.86812303727333562 -0.032958052163183489 1.3287549131371239 -0.60589869644333416 0.79151477201323817 0.03410461839130121 0.84906240914492581 0.86354296911143413 -0.65910182984779719 1.4333874192302016 -0.65910182984779719 -0.086812291992794083 0.85167392496590411 -0.03574408015504394 -0.086234613938020829
decision_type=2 2 2 2 2 2 2 2 2 2 2 2 2 2 2 2 2 2 2 2 2 2 2 2 2 2 2 2 2 2 2 2 2 2 2 2 2 2 2 2 2 2 2 2 2 2 2 2 2 2 2 2 2 2 2 2 2 2 2 2 2 2 2 2 2 2 2 2 2 2 2 2 2 2 2 2
left_child=11 2 3 4 39 17 8 -6 9 12 -11 -1 24 14 18 -16 19 -3 23 22 21 -21 31 71 -5 -17 30 29 -29 -28 43 -10 34 -34 38 36 37 -35 -33 40 -2 -38 -37 47 45 46 -45 48 49 51 -51 53 54 -22 -53 -50 64 58 68 -59 -47 63 -63 -61 65 66 -49 -58 -48 -32 -46 -12 74 -74 -73 -75
right_child=1 5 -4 6 7 -7 -8 -9 16 10 13 -13 -14 -15 15 25 -18 -19 -20 20 26 -23 -24 -25 -26 -27 27 28 -30 -31 69 32 33 35 -36 42 41 -39 -40 -41 -42 -43 -44 44 70 60 57 56 55 50 -52 52 -54 -55 -56 -57 67 59 -60 61 -62 62 -64 -65 -66 -67 -68 -69 -70 -71 -72 72 73 75 -76 -77
